tree
version=v2
num_class=10
num_tree_per_iteration=10
label_index=0
max_feature_idx=3071
objective=multiclass num_class:10
feature_names=Column_0 Column_1 Column_2 Column_3 Column_4 Column_5 Column_6 Column_7 Column_8 Column_9 Column_10 Column_11 Column_12 Column_13 Column_14 Column_15 Column_16 Column_17 Column_18 Column_19 Column_20 Column_21 Column_22 Column_23 Column_24 Column_25 Column_26 Column_27 Column_28 Column_29 Column_30 Column_31 Column_32 Column_33 Column_34 Column_35 Column_36 Column_37 Column_38 Column_39 Column_40 Column_41 Column_42 Column_43 Column_44 Column_45 Column_46 Column_47 Column_48 Column_49 Column_50 Column_51 Column_52 Column_53 Column_54 Column_55 Column_56 Column_57 Column_58 Column_59 Column_60 Column_61 Column_62 Column_63 Column_64 Column_65 Column_66 Column_67 Column_68 Column_69 Column_70 Column_71 Column_72 Column_73 Column_74 Column_75 Column_76 Column_77 Column_78 Column_79 Column_80 Column_81 Column_82 Column_83 Column_84 Column_85 Column_86 Column_87 Column_88 Column_89 Column_90 Column_91 Column_92 Column_93 Column_94 Column_95 Column_96 Column_97 Column_98 Column_99 Column_100 Column_101 Column_102 Column_103 Column_104 Column_105 Column_106 Column_107 Column_108 Column_109 Column_110 Column_111 Column_112 Column_113 Column_114 Column_115 Column_116 Column_117 Column_118 Column_119 Column_120 Column_121 Column_122 Column_123 Column_124 Column_125 Column_126 Column_127 Column_128 Column_129 Column_130 Column_131 Column_132 Column_133 Column_134 Column_135 Column_136 Column_137 Column_138 Column_139 Column_140 Column_141 Column_142 Column_143 Column_144 Column_145 Column_146 Column_147 Column_148 Column_149 Column_150 Column_151 Column_152 Column_153 Column_154 Column_155 Column_156 Column_157 Column_158 Column_159 Column_160 Column_161 Column_162 Column_163 Column_164 Column_165 Column_166 Column_167 Column_168 Column_169 Column_170 Column_171 Column_172 Column_173 Column_174 Column_175 Column_176 Column_177 Column_178 Column_179 Column_180 Column_181 Column_182 Column_183 Column_184 Column_185 Column_186 Column_187 Column_188 Column_189 Column_190 Column_191 Column_192 Column_193 Column_194 Column_195 Column_196 Column_197 Column_198 Column_199 Column_200 Column_201 Column_202 Column_203 Column_204 Column_205 Column_206 Column_207 Column_208 Column_209 Column_210 Column_211 Column_212 Column_213 Column_214 Column_215 Column_216 Column_217 Column_218 Column_219 Column_220 Column_221 Column_222 Column_223 Column_224 Column_225 Column_226 Column_227 Column_228 Column_229 Column_230 Column_231 Column_232 Column_233 Column_234 Column_235 Column_236 Column_237 Column_238 Column_239 Column_240 Column_241 Column_242 Column_243 Column_244 Column_245 Column_246 Column_247 Column_248 Column_249 Column_250 Column_251 Column_252 Column_253 Column_254 Column_255 Column_256 Column_257 Column_258 Column_259 Column_260 Column_261 Column_262 Column_263 Column_264 Column_265 Column_266 Column_267 Column_268 Column_269 Column_270 Column_271 Column_272 Column_273 Column_274 Column_275 Column_276 Column_277 Column_278 Column_279 Column_280 Column_281 Column_282 Column_283 Column_284 Column_285 Column_286 Column_287 Column_288 Column_289 Column_290 Column_291 Column_292 Column_293 Column_294 Column_295 Column_296 Column_297 Column_298 Column_299 Column_300 Column_301 Column_302 Column_303 Column_304 Column_305 Column_306 Column_307 Column_308 Column_309 Column_310 Column_311 Column_312 Column_313 Column_314 Column_315 Column_316 Column_317 Column_318 Column_319 Column_320 Column_321 Column_322 Column_323 Column_324 Column_325 Column_326 Column_327 Column_328 Column_329 Column_330 Column_331 Column_332 Column_333 Column_334 Column_335 Column_336 Column_337 Column_338 Column_339 Column_340 Column_341 Column_342 Column_343 Column_344 Column_345 Column_346 Column_347 Column_348 Column_349 Column_350 Column_351 Column_352 Column_353 Column_354 Column_355 Column_356 Column_357 Column_358 Column_359 Column_360 Column_361 Column_362 Column_363 Column_364 Column_365 Column_366 Column_367 Column_368 Column_369 Column_370 Column_371 Column_372 Column_373 Column_374 Column_375 Column_376 Column_377 Column_378 Column_379 Column_380 Column_381 Column_382 Column_383 Column_384 Column_385 Column_386 Column_387 Column_388 Column_389 Column_390 Column_391 Column_392 Column_393 Column_394 Column_395 Column_396 Column_397 Column_398 Column_399 Column_400 Column_401 Column_402 Column_403 Column_404 Column_405 Column_406 Column_407 Column_408 Column_409 Column_410 Column_411 Column_412 Column_413 Column_414 Column_415 Column_416 Column_417 Column_418 Column_419 Column_420 Column_421 Column_422 Column_423 Column_424 Column_425 Column_426 Column_427 Column_428 Column_429 Column_430 Column_431 Column_432 Column_433 Column_434 Column_435 Column_436 Column_437 Column_438 Column_439 Column_440 Column_441 Column_442 Column_443 Column_444 Column_445 Column_446 Column_447 Column_448 Column_449 Column_450 Column_451 Column_452 Column_453 Column_454 Column_455 Column_456 Column_457 Column_458 Column_459 Column_460 Column_461 Column_462 Column_463 Column_464 Column_465 Column_466 Column_467 Column_468 Column_469 Column_470 Column_471 Column_472 Column_473 Column_474 Column_475 Column_476 Column_477 Column_478 Column_479 Column_480 Column_481 Column_482 Column_483 Column_484 Column_485 Column_486 Column_487 Column_488 Column_489 Column_490 Column_491 Column_492 Column_493 Column_494 Column_495 Column_496 Column_497 Column_498 Column_499 Column_500 Column_501 Column_502 Column_503 Column_504 Column_505 Column_506 Column_507 Column_508 Column_509 Column_510 Column_511 Column_512 Column_513 Column_514 Column_515 Column_516 Column_517 Column_518 Column_519 Column_520 Column_521 Column_522 Column_523 Column_524 Column_525 Column_526 Column_527 Column_528 Column_529 Column_530 Column_531 Column_532 Column_533 Column_534 Column_535 Column_536 Column_537 Column_538 Column_539 Column_540 Column_541 Column_542 Column_543 Column_544 Column_545 Column_546 Column_547 Column_548 Column_549 Column_550 Column_551 Column_552 Column_553 Column_554 Column_555 Column_556 Column_557 Column_558 Column_559 Column_560 Column_561 Column_562 Column_563 Column_564 Column_565 Column_566 Column_567 Column_568 Column_569 Column_570 Column_571 Column_572 Column_573 Column_574 Column_575 Column_576 Column_577 Column_578 Column_579 Column_580 Column_581 Column_582 Column_583 Column_584 Column_585 Column_586 Column_587 Column_588 Column_589 Column_590 Column_591 Column_592 Column_593 Column_594 Column_595 Column_596 Column_597 Column_598 Column_599 Column_600 Column_601 Column_602 Column_603 Column_604 Column_605 Column_606 Column_607 Column_608 Column_609 Column_610 Column_611 Column_612 Column_613 Column_614 Column_615 Column_616 Column_617 Column_618 Column_619 Column_620 Column_621 Column_622 Column_623 Column_624 Column_625 Column_626 Column_627 Column_628 Column_629 Column_630 Column_631 Column_632 Column_633 Column_634 Column_635 Column_636 Column_637 Column_638 Column_639 Column_640 Column_641 Column_642 Column_643 Column_644 Column_645 Column_646 Column_647 Column_648 Column_649 Column_650 Column_651 Column_652 Column_653 Column_654 Column_655 Column_656 Column_657 Column_658 Column_659 Column_660 Column_661 Column_662 Column_663 Column_664 Column_665 Column_666 Column_667 Column_668 Column_669 Column_670 Column_671 Column_672 Column_673 Column_674 Column_675 Column_676 Column_677 Column_678 Column_679 Column_680 Column_681 Column_682 Column_683 Column_684 Column_685 Column_686 Column_687 Column_688 Column_689 Column_690 Column_691 Column_692 Column_693 Column_694 Column_695 Column_696 Column_697 Column_698 Column_699 Column_700 Column_701 Column_702 Column_703 Column_704 Column_705 Column_706 Column_707 Column_708 Column_709 Column_710 Column_711 Column_712 Column_713 Column_714 Column_715 Column_716 Column_717 Column_718 Column_719 Column_720 Column_721 Column_722 Column_723 Column_724 Column_725 Column_726 Column_727 Column_728 Column_729 Column_730 Column_731 Column_732 Column_733 Column_734 Column_735 Column_736 Column_737 Column_738 Column_739 Column_740 Column_741 Column_742 Column_743 Column_744 Column_745 Column_746 Column_747 Column_748 Column_749 Column_750 Column_751 Column_752 Column_753 Column_754 Column_755 Column_756 Column_757 Column_758 Column_759 Column_760 Column_761 Column_762 Column_763 Column_764 Column_765 Column_766 Column_767 Column_768 Column_769 Column_770 Column_771 Column_772 Column_773 Column_774 Column_775 Column_776 Column_777 Column_778 Column_779 Column_780 Column_781 Column_782 Column_783 Column_784 Column_785 Column_786 Column_787 Column_788 Column_789 Column_790 Column_791 Column_792 Column_793 Column_794 Column_795 Column_796 Column_797 Column_798 Column_799 Column_800 Column_801 Column_802 Column_803 Column_804 Column_805 Column_806 Column_807 Column_808 Column_809 Column_810 Column_811 Column_812 Column_813 Column_814 Column_815 Column_816 Column_817 Column_818 Column_819 Column_820 Column_821 Column_822 Column_823 Column_824 Column_825 Column_826 Column_827 Column_828 Column_829 Column_830 Column_831 Column_832 Column_833 Column_834 Column_835 Column_836 Column_837 Column_838 Column_839 Column_840 Column_841 Column_842 Column_843 Column_844 Column_845 Column_846 Column_847 Column_848 Column_849 Column_850 Column_851 Column_852 Column_853 Column_854 Column_855 Column_856 Column_857 Column_858 Column_859 Column_860 Column_861 Column_862 Column_863 Column_864 Column_865 Column_866 Column_867 Column_868 Column_869 Column_870 Column_871 Column_872 Column_873 Column_874 Column_875 Column_876 Column_877 Column_878 Column_879 Column_880 Column_881 Column_882 Column_883 Column_884 Column_885 Column_886 Column_887 Column_888 Column_889 Column_890 Column_891 Column_892 Column_893 Column_894 Column_895 Column_896 Column_897 Column_898 Column_899 Column_900 Column_901 Column_902 Column_903 Column_904 Column_905 Column_906 Column_907 Column_908 Column_909 Column_910 Column_911 Column_912 Column_913 Column_914 Column_915 Column_916 Column_917 Column_918 Column_919 Column_920 Column_921 Column_922 Column_923 Column_924 Column_925 Column_926 Column_927 Column_928 Column_929 Column_930 Column_931 Column_932 Column_933 Column_934 Column_935 Column_936 Column_937 Column_938 Column_939 Column_940 Column_941 Column_942 Column_943 Column_944 Column_945 Column_946 Column_947 Column_948 Column_949 Column_950 Column_951 Column_952 Column_953 Column_954 Column_955 Column_956 Column_957 Column_958 Column_959 Column_960 Column_961 Column_962 Column_963 Column_964 Column_965 Column_966 Column_967 Column_968 Column_969 Column_970 Column_971 Column_972 Column_973 Column_974 Column_975 Column_976 Column_977 Column_978 Column_979 Column_980 Column_981 Column_982 Column_983 Column_984 Column_985 Column_986 Column_987 Column_988 Column_989 Column_990 Column_991 Column_992 Column_993 Column_994 Column_995 Column_996 Column_997 Column_998 Column_999 Column_1000 Column_1001 Column_1002 Column_1003 Column_1004 Column_1005 Column_1006 Column_1007 Column_1008 Column_1009 Column_1010 Column_1011 Column_1012 Column_1013 Column_1014 Column_1015 Column_1016 Column_1017 Column_1018 Column_1019 Column_1020 Column_1021 Column_1022 Column_1023 Column_1024 Column_1025 Column_1026 Column_1027 Column_1028 Column_1029 Column_1030 Column_1031 Column_1032 Column_1033 Column_1034 Column_1035 Column_1036 Column_1037 Column_1038 Column_1039 Column_1040 Column_1041 Column_1042 Column_1043 Column_1044 Column_1045 Column_1046 Column_1047 Column_1048 Column_1049 Column_1050 Column_1051 Column_1052 Column_1053 Column_1054 Column_1055 Column_1056 Column_1057 Column_1058 Column_1059 Column_1060 Column_1061 Column_1062 Column_1063 Column_1064 Column_1065 Column_1066 Column_1067 Column_1068 Column_1069 Column_1070 Column_1071 Column_1072 Column_1073 Column_1074 Column_1075 Column_1076 Column_1077 Column_1078 Column_1079 Column_1080 Column_1081 Column_1082 Column_1083 Column_1084 Column_1085 Column_1086 Column_1087 Column_1088 Column_1089 Column_1090 Column_1091 Column_1092 Column_1093 Column_1094 Column_1095 Column_1096 Column_1097 Column_1098 Column_1099 Column_1100 Column_1101 Column_1102 Column_1103 Column_1104 Column_1105 Column_1106 Column_1107 Column_1108 Column_1109 Column_1110 Column_1111 Column_1112 Column_1113 Column_1114 Column_1115 Column_1116 Column_1117 Column_1118 Column_1119 Column_1120 Column_1121 Column_1122 Column_1123 Column_1124 Column_1125 Column_1126 Column_1127 Column_1128 Column_1129 Column_1130 Column_1131 Column_1132 Column_1133 Column_1134 Column_1135 Column_1136 Column_1137 Column_1138 Column_1139 Column_1140 Column_1141 Column_1142 Column_1143 Column_1144 Column_1145 Column_1146 Column_1147 Column_1148 Column_1149 Column_1150 Column_1151 Column_1152 Column_1153 Column_1154 Column_1155 Column_1156 Column_1157 Column_1158 Column_1159 Column_1160 Column_1161 Column_1162 Column_1163 Column_1164 Column_1165 Column_1166 Column_1167 Column_1168 Column_1169 Column_1170 Column_1171 Column_1172 Column_1173 Column_1174 Column_1175 Column_1176 Column_1177 Column_1178 Column_1179 Column_1180 Column_1181 Column_1182 Column_1183 Column_1184 Column_1185 Column_1186 Column_1187 Column_1188 Column_1189 Column_1190 Column_1191 Column_1192 Column_1193 Column_1194 Column_1195 Column_1196 Column_1197 Column_1198 Column_1199 Column_1200 Column_1201 Column_1202 Column_1203 Column_1204 Column_1205 Column_1206 Column_1207 Column_1208 Column_1209 Column_1210 Column_1211 Column_1212 Column_1213 Column_1214 Column_1215 Column_1216 Column_1217 Column_1218 Column_1219 Column_1220 Column_1221 Column_1222 Column_1223 Column_1224 Column_1225 Column_1226 Column_1227 Column_1228 Column_1229 Column_1230 Column_1231 Column_1232 Column_1233 Column_1234 Column_1235 Column_1236 Column_1237 Column_1238 Column_1239 Column_1240 Column_1241 Column_1242 Column_1243 Column_1244 Column_1245 Column_1246 Column_1247 Column_1248 Column_1249 Column_1250 Column_1251 Column_1252 Column_1253 Column_1254 Column_1255 Column_1256 Column_1257 Column_1258 Column_1259 Column_1260 Column_1261 Column_1262 Column_1263 Column_1264 Column_1265 Column_1266 Column_1267 Column_1268 Column_1269 Column_1270 Column_1271 Column_1272 Column_1273 Column_1274 Column_1275 Column_1276 Column_1277 Column_1278 Column_1279 Column_1280 Column_1281 Column_1282 Column_1283 Column_1284 Column_1285 Column_1286 Column_1287 Column_1288 Column_1289 Column_1290 Column_1291 Column_1292 Column_1293 Column_1294 Column_1295 Column_1296 Column_1297 Column_1298 Column_1299 Column_1300 Column_1301 Column_1302 Column_1303 Column_1304 Column_1305 Column_1306 Column_1307 Column_1308 Column_1309 Column_1310 Column_1311 Column_1312 Column_1313 Column_1314 Column_1315 Column_1316 Column_1317 Column_1318 Column_1319 Column_1320 Column_1321 Column_1322 Column_1323 Column_1324 Column_1325 Column_1326 Column_1327 Column_1328 Column_1329 Column_1330 Column_1331 Column_1332 Column_1333 Column_1334 Column_1335 Column_1336 Column_1337 Column_1338 Column_1339 Column_1340 Column_1341 Column_1342 Column_1343 Column_1344 Column_1345 Column_1346 Column_1347 Column_1348 Column_1349 Column_1350 Column_1351 Column_1352 Column_1353 Column_1354 Column_1355 Column_1356 Column_1357 Column_1358 Column_1359 Column_1360 Column_1361 Column_1362 Column_1363 Column_1364 Column_1365 Column_1366 Column_1367 Column_1368 Column_1369 Column_1370 Column_1371 Column_1372 Column_1373 Column_1374 Column_1375 Column_1376 Column_1377 Column_1378 Column_1379 Column_1380 Column_1381 Column_1382 Column_1383 Column_1384 Column_1385 Column_1386 Column_1387 Column_1388 Column_1389 Column_1390 Column_1391 Column_1392 Column_1393 Column_1394 Column_1395 Column_1396 Column_1397 Column_1398 Column_1399 Column_1400 Column_1401 Column_1402 Column_1403 Column_1404 Column_1405 Column_1406 Column_1407 Column_1408 Column_1409 Column_1410 Column_1411 Column_1412 Column_1413 Column_1414 Column_1415 Column_1416 Column_1417 Column_1418 Column_1419 Column_1420 Column_1421 Column_1422 Column_1423 Column_1424 Column_1425 Column_1426 Column_1427 Column_1428 Column_1429 Column_1430 Column_1431 Column_1432 Column_1433 Column_1434 Column_1435 Column_1436 Column_1437 Column_1438 Column_1439 Column_1440 Column_1441 Column_1442 Column_1443 Column_1444 Column_1445 Column_1446 Column_1447 Column_1448 Column_1449 Column_1450 Column_1451 Column_1452 Column_1453 Column_1454 Column_1455 Column_1456 Column_1457 Column_1458 Column_1459 Column_1460 Column_1461 Column_1462 Column_1463 Column_1464 Column_1465 Column_1466 Column_1467 Column_1468 Column_1469 Column_1470 Column_1471 Column_1472 Column_1473 Column_1474 Column_1475 Column_1476 Column_1477 Column_1478 Column_1479 Column_1480 Column_1481 Column_1482 Column_1483 Column_1484 Column_1485 Column_1486 Column_1487 Column_1488 Column_1489 Column_1490 Column_1491 Column_1492 Column_1493 Column_1494 Column_1495 Column_1496 Column_1497 Column_1498 Column_1499 Column_1500 Column_1501 Column_1502 Column_1503 Column_1504 Column_1505 Column_1506 Column_1507 Column_1508 Column_1509 Column_1510 Column_1511 Column_1512 Column_1513 Column_1514 Column_1515 Column_1516 Column_1517 Column_1518 Column_1519 Column_1520 Column_1521 Column_1522 Column_1523 Column_1524 Column_1525 Column_1526 Column_1527 Column_1528 Column_1529 Column_1530 Column_1531 Column_1532 Column_1533 Column_1534 Column_1535 Column_1536 Column_1537 Column_1538 Column_1539 Column_1540 Column_1541 Column_1542 Column_1543 Column_1544 Column_1545 Column_1546 Column_1547 Column_1548 Column_1549 Column_1550 Column_1551 Column_1552 Column_1553 Column_1554 Column_1555 Column_1556 Column_1557 Column_1558 Column_1559 Column_1560 Column_1561 Column_1562 Column_1563 Column_1564 Column_1565 Column_1566 Column_1567 Column_1568 Column_1569 Column_1570 Column_1571 Column_1572 Column_1573 Column_1574 Column_1575 Column_1576 Column_1577 Column_1578 Column_1579 Column_1580 Column_1581 Column_1582 Column_1583 Column_1584 Column_1585 Column_1586 Column_1587 Column_1588 Column_1589 Column_1590 Column_1591 Column_1592 Column_1593 Column_1594 Column_1595 Column_1596 Column_1597 Column_1598 Column_1599 Column_1600 Column_1601 Column_1602 Column_1603 Column_1604 Column_1605 Column_1606 Column_1607 Column_1608 Column_1609 Column_1610 Column_1611 Column_1612 Column_1613 Column_1614 Column_1615 Column_1616 Column_1617 Column_1618 Column_1619 Column_1620 Column_1621 Column_1622 Column_1623 Column_1624 Column_1625 Column_1626 Column_1627 Column_1628 Column_1629 Column_1630 Column_1631 Column_1632 Column_1633 Column_1634 Column_1635 Column_1636 Column_1637 Column_1638 Column_1639 Column_1640 Column_1641 Column_1642 Column_1643 Column_1644 Column_1645 Column_1646 Column_1647 Column_1648 Column_1649 Column_1650 Column_1651 Column_1652 Column_1653 Column_1654 Column_1655 Column_1656 Column_1657 Column_1658 Column_1659 Column_1660 Column_1661 Column_1662 Column_1663 Column_1664 Column_1665 Column_1666 Column_1667 Column_1668 Column_1669 Column_1670 Column_1671 Column_1672 Column_1673 Column_1674 Column_1675 Column_1676 Column_1677 Column_1678 Column_1679 Column_1680 Column_1681 Column_1682 Column_1683 Column_1684 Column_1685 Column_1686 Column_1687 Column_1688 Column_1689 Column_1690 Column_1691 Column_1692 Column_1693 Column_1694 Column_1695 Column_1696 Column_1697 Column_1698 Column_1699 Column_1700 Column_1701 Column_1702 Column_1703 Column_1704 Column_1705 Column_1706 Column_1707 Column_1708 Column_1709 Column_1710 Column_1711 Column_1712 Column_1713 Column_1714 Column_1715 Column_1716 Column_1717 Column_1718 Column_1719 Column_1720 Column_1721 Column_1722 Column_1723 Column_1724 Column_1725 Column_1726 Column_1727 Column_1728 Column_1729 Column_1730 Column_1731 Column_1732 Column_1733 Column_1734 Column_1735 Column_1736 Column_1737 Column_1738 Column_1739 Column_1740 Column_1741 Column_1742 Column_1743 Column_1744 Column_1745 Column_1746 Column_1747 Column_1748 Column_1749 Column_1750 Column_1751 Column_1752 Column_1753 Column_1754 Column_1755 Column_1756 Column_1757 Column_1758 Column_1759 Column_1760 Column_1761 Column_1762 Column_1763 Column_1764 Column_1765 Column_1766 Column_1767 Column_1768 Column_1769 Column_1770 Column_1771 Column_1772 Column_1773 Column_1774 Column_1775 Column_1776 Column_1777 Column_1778 Column_1779 Column_1780 Column_1781 Column_1782 Column_1783 Column_1784 Column_1785 Column_1786 Column_1787 Column_1788 Column_1789 Column_1790 Column_1791 Column_1792 Column_1793 Column_1794 Column_1795 Column_1796 Column_1797 Column_1798 Column_1799 Column_1800 Column_1801 Column_1802 Column_1803 Column_1804 Column_1805 Column_1806 Column_1807 Column_1808 Column_1809 Column_1810 Column_1811 Column_1812 Column_1813 Column_1814 Column_1815 Column_1816 Column_1817 Column_1818 Column_1819 Column_1820 Column_1821 Column_1822 Column_1823 Column_1824 Column_1825 Column_1826 Column_1827 Column_1828 Column_1829 Column_1830 Column_1831 Column_1832 Column_1833 Column_1834 Column_1835 Column_1836 Column_1837 Column_1838 Column_1839 Column_1840 Column_1841 Column_1842 Column_1843 Column_1844 Column_1845 Column_1846 Column_1847 Column_1848 Column_1849 Column_1850 Column_1851 Column_1852 Column_1853 Column_1854 Column_1855 Column_1856 Column_1857 Column_1858 Column_1859 Column_1860 Column_1861 Column_1862 Column_1863 Column_1864 Column_1865 Column_1866 Column_1867 Column_1868 Column_1869 Column_1870 Column_1871 Column_1872 Column_1873 Column_1874 Column_1875 Column_1876 Column_1877 Column_1878 Column_1879 Column_1880 Column_1881 Column_1882 Column_1883 Column_1884 Column_1885 Column_1886 Column_1887 Column_1888 Column_1889 Column_1890 Column_1891 Column_1892 Column_1893 Column_1894 Column_1895 Column_1896 Column_1897 Column_1898 Column_1899 Column_1900 Column_1901 Column_1902 Column_1903 Column_1904 Column_1905 Column_1906 Column_1907 Column_1908 Column_1909 Column_1910 Column_1911 Column_1912 Column_1913 Column_1914 Column_1915 Column_1916 Column_1917 Column_1918 Column_1919 Column_1920 Column_1921 Column_1922 Column_1923 Column_1924 Column_1925 Column_1926 Column_1927 Column_1928 Column_1929 Column_1930 Column_1931 Column_1932 Column_1933 Column_1934 Column_1935 Column_1936 Column_1937 Column_1938 Column_1939 Column_1940 Column_1941 Column_1942 Column_1943 Column_1944 Column_1945 Column_1946 Column_1947 Column_1948 Column_1949 Column_1950 Column_1951 Column_1952 Column_1953 Column_1954 Column_1955 Column_1956 Column_1957 Column_1958 Column_1959 Column_1960 Column_1961 Column_1962 Column_1963 Column_1964 Column_1965 Column_1966 Column_1967 Column_1968 Column_1969 Column_1970 Column_1971 Column_1972 Column_1973 Column_1974 Column_1975 Column_1976 Column_1977 Column_1978 Column_1979 Column_1980 Column_1981 Column_1982 Column_1983 Column_1984 Column_1985 Column_1986 Column_1987 Column_1988 Column_1989 Column_1990 Column_1991 Column_1992 Column_1993 Column_1994 Column_1995 Column_1996 Column_1997 Column_1998 Column_1999 Column_2000 Column_2001 Column_2002 Column_2003 Column_2004 Column_2005 Column_2006 Column_2007 Column_2008 Column_2009 Column_2010 Column_2011 Column_2012 Column_2013 Column_2014 Column_2015 Column_2016 Column_2017 Column_2018 Column_2019 Column_2020 Column_2021 Column_2022 Column_2023 Column_2024 Column_2025 Column_2026 Column_2027 Column_2028 Column_2029 Column_2030 Column_2031 Column_2032 Column_2033 Column_2034 Column_2035 Column_2036 Column_2037 Column_2038 Column_2039 Column_2040 Column_2041 Column_2042 Column_2043 Column_2044 Column_2045 Column_2046 Column_2047 Column_2048 Column_2049 Column_2050 Column_2051 Column_2052 Column_2053 Column_2054 Column_2055 Column_2056 Column_2057 Column_2058 Column_2059 Column_2060 Column_2061 Column_2062 Column_2063 Column_2064 Column_2065 Column_2066 Column_2067 Column_2068 Column_2069 Column_2070 Column_2071 Column_2072 Column_2073 Column_2074 Column_2075 Column_2076 Column_2077 Column_2078 Column_2079 Column_2080 Column_2081 Column_2082 Column_2083 Column_2084 Column_2085 Column_2086 Column_2087 Column_2088 Column_2089 Column_2090 Column_2091 Column_2092 Column_2093 Column_2094 Column_2095 Column_2096 Column_2097 Column_2098 Column_2099 Column_2100 Column_2101 Column_2102 Column_2103 Column_2104 Column_2105 Column_2106 Column_2107 Column_2108 Column_2109 Column_2110 Column_2111 Column_2112 Column_2113 Column_2114 Column_2115 Column_2116 Column_2117 Column_2118 Column_2119 Column_2120 Column_2121 Column_2122 Column_2123 Column_2124 Column_2125 Column_2126 Column_2127 Column_2128 Column_2129 Column_2130 Column_2131 Column_2132 Column_2133 Column_2134 Column_2135 Column_2136 Column_2137 Column_2138 Column_2139 Column_2140 Column_2141 Column_2142 Column_2143 Column_2144 Column_2145 Column_2146 Column_2147 Column_2148 Column_2149 Column_2150 Column_2151 Column_2152 Column_2153 Column_2154 Column_2155 Column_2156 Column_2157 Column_2158 Column_2159 Column_2160 Column_2161 Column_2162 Column_2163 Column_2164 Column_2165 Column_2166 Column_2167 Column_2168 Column_2169 Column_2170 Column_2171 Column_2172 Column_2173 Column_2174 Column_2175 Column_2176 Column_2177 Column_2178 Column_2179 Column_2180 Column_2181 Column_2182 Column_2183 Column_2184 Column_2185 Column_2186 Column_2187 Column_2188 Column_2189 Column_2190 Column_2191 Column_2192 Column_2193 Column_2194 Column_2195 Column_2196 Column_2197 Column_2198 Column_2199 Column_2200 Column_2201 Column_2202 Column_2203 Column_2204 Column_2205 Column_2206 Column_2207 Column_2208 Column_2209 Column_2210 Column_2211 Column_2212 Column_2213 Column_2214 Column_2215 Column_2216 Column_2217 Column_2218 Column_2219 Column_2220 Column_2221 Column_2222 Column_2223 Column_2224 Column_2225 Column_2226 Column_2227 Column_2228 Column_2229 Column_2230 Column_2231 Column_2232 Column_2233 Column_2234 Column_2235 Column_2236 Column_2237 Column_2238 Column_2239 Column_2240 Column_2241 Column_2242 Column_2243 Column_2244 Column_2245 Column_2246 Column_2247 Column_2248 Column_2249 Column_2250 Column_2251 Column_2252 Column_2253 Column_2254 Column_2255 Column_2256 Column_2257 Column_2258 Column_2259 Column_2260 Column_2261 Column_2262 Column_2263 Column_2264 Column_2265 Column_2266 Column_2267 Column_2268 Column_2269 Column_2270 Column_2271 Column_2272 Column_2273 Column_2274 Column_2275 Column_2276 Column_2277 Column_2278 Column_2279 Column_2280 Column_2281 Column_2282 Column_2283 Column_2284 Column_2285 Column_2286 Column_2287 Column_2288 Column_2289 Column_2290 Column_2291 Column_2292 Column_2293 Column_2294 Column_2295 Column_2296 Column_2297 Column_2298 Column_2299 Column_2300 Column_2301 Column_2302 Column_2303 Column_2304 Column_2305 Column_2306 Column_2307 Column_2308 Column_2309 Column_2310 Column_2311 Column_2312 Column_2313 Column_2314 Column_2315 Column_2316 Column_2317 Column_2318 Column_2319 Column_2320 Column_2321 Column_2322 Column_2323 Column_2324 Column_2325 Column_2326 Column_2327 Column_2328 Column_2329 Column_2330 Column_2331 Column_2332 Column_2333 Column_2334 Column_2335 Column_2336 Column_2337 Column_2338 Column_2339 Column_2340 Column_2341 Column_2342 Column_2343 Column_2344 Column_2345 Column_2346 Column_2347 Column_2348 Column_2349 Column_2350 Column_2351 Column_2352 Column_2353 Column_2354 Column_2355 Column_2356 Column_2357 Column_2358 Column_2359 Column_2360 Column_2361 Column_2362 Column_2363 Column_2364 Column_2365 Column_2366 Column_2367 Column_2368 Column_2369 Column_2370 Column_2371 Column_2372 Column_2373 Column_2374 Column_2375 Column_2376 Column_2377 Column_2378 Column_2379 Column_2380 Column_2381 Column_2382 Column_2383 Column_2384 Column_2385 Column_2386 Column_2387 Column_2388 Column_2389 Column_2390 Column_2391 Column_2392 Column_2393 Column_2394 Column_2395 Column_2396 Column_2397 Column_2398 Column_2399 Column_2400 Column_2401 Column_2402 Column_2403 Column_2404 Column_2405 Column_2406 Column_2407 Column_2408 Column_2409 Column_2410 Column_2411 Column_2412 Column_2413 Column_2414 Column_2415 Column_2416 Column_2417 Column_2418 Column_2419 Column_2420 Column_2421 Column_2422 Column_2423 Column_2424 Column_2425 Column_2426 Column_2427 Column_2428 Column_2429 Column_2430 Column_2431 Column_2432 Column_2433 Column_2434 Column_2435 Column_2436 Column_2437 Column_2438 Column_2439 Column_2440 Column_2441 Column_2442 Column_2443 Column_2444 Column_2445 Column_2446 Column_2447 Column_2448 Column_2449 Column_2450 Column_2451 Column_2452 Column_2453 Column_2454 Column_2455 Column_2456 Column_2457 Column_2458 Column_2459 Column_2460 Column_2461 Column_2462 Column_2463 Column_2464 Column_2465 Column_2466 Column_2467 Column_2468 Column_2469 Column_2470 Column_2471 Column_2472 Column_2473 Column_2474 Column_2475 Column_2476 Column_2477 Column_2478 Column_2479 Column_2480 Column_2481 Column_2482 Column_2483 Column_2484 Column_2485 Column_2486 Column_2487 Column_2488 Column_2489 Column_2490 Column_2491 Column_2492 Column_2493 Column_2494 Column_2495 Column_2496 Column_2497 Column_2498 Column_2499 Column_2500 Column_2501 Column_2502 Column_2503 Column_2504 Column_2505 Column_2506 Column_2507 Column_2508 Column_2509 Column_2510 Column_2511 Column_2512 Column_2513 Column_2514 Column_2515 Column_2516 Column_2517 Column_2518 Column_2519 Column_2520 Column_2521 Column_2522 Column_2523 Column_2524 Column_2525 Column_2526 Column_2527 Column_2528 Column_2529 Column_2530 Column_2531 Column_2532 Column_2533 Column_2534 Column_2535 Column_2536 Column_2537 Column_2538 Column_2539 Column_2540 Column_2541 Column_2542 Column_2543 Column_2544 Column_2545 Column_2546 Column_2547 Column_2548 Column_2549 Column_2550 Column_2551 Column_2552 Column_2553 Column_2554 Column_2555 Column_2556 Column_2557 Column_2558 Column_2559 Column_2560 Column_2561 Column_2562 Column_2563 Column_2564 Column_2565 Column_2566 Column_2567 Column_2568 Column_2569 Column_2570 Column_2571 Column_2572 Column_2573 Column_2574 Column_2575 Column_2576 Column_2577 Column_2578 Column_2579 Column_2580 Column_2581 Column_2582 Column_2583 Column_2584 Column_2585 Column_2586 Column_2587 Column_2588 Column_2589 Column_2590 Column_2591 Column_2592 Column_2593 Column_2594 Column_2595 Column_2596 Column_2597 Column_2598 Column_2599 Column_2600 Column_2601 Column_2602 Column_2603 Column_2604 Column_2605 Column_2606 Column_2607 Column_2608 Column_2609 Column_2610 Column_2611 Column_2612 Column_2613 Column_2614 Column_2615 Column_2616 Column_2617 Column_2618 Column_2619 Column_2620 Column_2621 Column_2622 Column_2623 Column_2624 Column_2625 Column_2626 Column_2627 Column_2628 Column_2629 Column_2630 Column_2631 Column_2632 Column_2633 Column_2634 Column_2635 Column_2636 Column_2637 Column_2638 Column_2639 Column_2640 Column_2641 Column_2642 Column_2643 Column_2644 Column_2645 Column_2646 Column_2647 Column_2648 Column_2649 Column_2650 Column_2651 Column_2652 Column_2653 Column_2654 Column_2655 Column_2656 Column_2657 Column_2658 Column_2659 Column_2660 Column_2661 Column_2662 Column_2663 Column_2664 Column_2665 Column_2666 Column_2667 Column_2668 Column_2669 Column_2670 Column_2671 Column_2672 Column_2673 Column_2674 Column_2675 Column_2676 Column_2677 Column_2678 Column_2679 Column_2680 Column_2681 Column_2682 Column_2683 Column_2684 Column_2685 Column_2686 Column_2687 Column_2688 Column_2689 Column_2690 Column_2691 Column_2692 Column_2693 Column_2694 Column_2695 Column_2696 Column_2697 Column_2698 Column_2699 Column_2700 Column_2701 Column_2702 Column_2703 Column_2704 Column_2705 Column_2706 Column_2707 Column_2708 Column_2709 Column_2710 Column_2711 Column_2712 Column_2713 Column_2714 Column_2715 Column_2716 Column_2717 Column_2718 Column_2719 Column_2720 Column_2721 Column_2722 Column_2723 Column_2724 Column_2725 Column_2726 Column_2727 Column_2728 Column_2729 Column_2730 Column_2731 Column_2732 Column_2733 Column_2734 Column_2735 Column_2736 Column_2737 Column_2738 Column_2739 Column_2740 Column_2741 Column_2742 Column_2743 Column_2744 Column_2745 Column_2746 Column_2747 Column_2748 Column_2749 Column_2750 Column_2751 Column_2752 Column_2753 Column_2754 Column_2755 Column_2756 Column_2757 Column_2758 Column_2759 Column_2760 Column_2761 Column_2762 Column_2763 Column_2764 Column_2765 Column_2766 Column_2767 Column_2768 Column_2769 Column_2770 Column_2771 Column_2772 Column_2773 Column_2774 Column_2775 Column_2776 Column_2777 Column_2778 Column_2779 Column_2780 Column_2781 Column_2782 Column_2783 Column_2784 Column_2785 Column_2786 Column_2787 Column_2788 Column_2789 Column_2790 Column_2791 Column_2792 Column_2793 Column_2794 Column_2795 Column_2796 Column_2797 Column_2798 Column_2799 Column_2800 Column_2801 Column_2802 Column_2803 Column_2804 Column_2805 Column_2806 Column_2807 Column_2808 Column_2809 Column_2810 Column_2811 Column_2812 Column_2813 Column_2814 Column_2815 Column_2816 Column_2817 Column_2818 Column_2819 Column_2820 Column_2821 Column_2822 Column_2823 Column_2824 Column_2825 Column_2826 Column_2827 Column_2828 Column_2829 Column_2830 Column_2831 Column_2832 Column_2833 Column_2834 Column_2835 Column_2836 Column_2837 Column_2838 Column_2839 Column_2840 Column_2841 Column_2842 Column_2843 Column_2844 Column_2845 Column_2846 Column_2847 Column_2848 Column_2849 Column_2850 Column_2851 Column_2852 Column_2853 Column_2854 Column_2855 Column_2856 Column_2857 Column_2858 Column_2859 Column_2860 Column_2861 Column_2862 Column_2863 Column_2864 Column_2865 Column_2866 Column_2867 Column_2868 Column_2869 Column_2870 Column_2871 Column_2872 Column_2873 Column_2874 Column_2875 Column_2876 Column_2877 Column_2878 Column_2879 Column_2880 Column_2881 Column_2882 Column_2883 Column_2884 Column_2885 Column_2886 Column_2887 Column_2888 Column_2889 Column_2890 Column_2891 Column_2892 Column_2893 Column_2894 Column_2895 Column_2896 Column_2897 Column_2898 Column_2899 Column_2900 Column_2901 Column_2902 Column_2903 Column_2904 Column_2905 Column_2906 Column_2907 Column_2908 Column_2909 Column_2910 Column_2911 Column_2912 Column_2913 Column_2914 Column_2915 Column_2916 Column_2917 Column_2918 Column_2919 Column_2920 Column_2921 Column_2922 Column_2923 Column_2924 Column_2925 Column_2926 Column_2927 Column_2928 Column_2929 Column_2930 Column_2931 Column_2932 Column_2933 Column_2934 Column_2935 Column_2936 Column_2937 Column_2938 Column_2939 Column_2940 Column_2941 Column_2942 Column_2943 Column_2944 Column_2945 Column_2946 Column_2947 Column_2948 Column_2949 Column_2950 Column_2951 Column_2952 Column_2953 Column_2954 Column_2955 Column_2956 Column_2957 Column_2958 Column_2959 Column_2960 Column_2961 Column_2962 Column_2963 Column_2964 Column_2965 Column_2966 Column_2967 Column_2968 Column_2969 Column_2970 Column_2971 Column_2972 Column_2973 Column_2974 Column_2975 Column_2976 Column_2977 Column_2978 Column_2979 Column_2980 Column_2981 Column_2982 Column_2983 Column_2984 Column_2985 Column_2986 Column_2987 Column_2988 Column_2989 Column_2990 Column_2991 Column_2992 Column_2993 Column_2994 Column_2995 Column_2996 Column_2997 Column_2998 Column_2999 Column_3000 Column_3001 Column_3002 Column_3003 Column_3004 Column_3005 Column_3006 Column_3007 Column_3008 Column_3009 Column_3010 Column_3011 Column_3012 Column_3013 Column_3014 Column_3015 Column_3016 Column_3017 Column_3018 Column_3019 Column_3020 Column_3021 Column_3022 Column_3023 Column_3024 Column_3025 Column_3026 Column_3027 Column_3028 Column_3029 Column_3030 Column_3031 Column_3032 Column_3033 Column_3034 Column_3035 Column_3036 Column_3037 Column_3038 Column_3039 Column_3040 Column_3041 Column_3042 Column_3043 Column_3044 Column_3045 Column_3046 Column_3047 Column_3048 Column_3049 Column_3050 Column_3051 Column_3052 Column_3053 Column_3054 Column_3055 Column_3056 Column_3057 Column_3058 Column_3059 Column_3060 Column_3061 Column_3062 Column_3063 Column_3064 Column_3065 Column_3066 Column_3067 Column_3068 Column_3069 Column_3070 Column_3071
feature_infos=[0:255] [0:255] [0:255] [0:255] [0:255] [0:255] [0:255] [0:255] [0:255] [0:255] [0:255] [0:255] [0:255] [0:255] [0:255] [0:255] [0:255] [0:255] [0:255] [0:255] [0:255] [0:255] [0:255] [0:255] [0:255] [0:255] [0:255] [0:255] [0:255] [0:255] [0:255] [0:255] [0:255] [0:255] [0:255] [0:255] [0:255] [0:255] [0:255] [0:255] [0:255] [0:255] [0:255] [0:255] [0:255] [0:255] [0:255] [0:255] [0:255] [0:255] [0:255] [0:255] [0:255] [0:255] [0:255] [0:255] [0:255] [0:255] [0:255] [0:255] [0:255] [0:255] [0:255] [0:255] [0:255] [0:255] [0:255] [0:255] [0:255] [0:255] [0:255] [0:255] [0:255] [0:255] [0:255] [0:255] [0:255] [0:255] [0:255] [0:255] [0:255] [0:255] [0:255] [0:255] [0:255] [0:255] [0:255] [0:255] [0:255] [0:255] [0:255] [0:255] [0:255] [0:255] [0:255] [0:255] [0:255] [0:255] [0:255] [0:255] [0:255] [0:255] [0:255] [0:255] [0:255] [0:255] [0:255] [0:255] [0:255] [0:255] [0:255] [0:255] [0:255] [0:255] [0:255] [0:255] [0:255] [0:255] [0:255] [0:255] [0:255] [0:255] [0:255] [0:255] [0:255] [0:255] [0:255] [0:255] [0:255] [0:255] [0:255] [0:255] [0:255] [0:255] [0:255] [0:255] [0:255] [0:255] [0:255] [0:255] [0:255] [0:255] [0:255] [0:255] [0:255] [0:255] [0:255] [0:255] [0:255] [0:255] [0:255] [0:255] [0:255] [0:255] [0:255] [0:255] [0:255] [0:255] [0:255] [0:255] [0:255] [0:255] [0:255] [0:255] [0:255] [0:255] [0:255] [0:255] [0:255] [0:255] [0:255] [0:255] [0:255] [0:255] [0:255] [0:255] [0:255] [0:255] [0:255] [0:255] [0:255] [0:255] [0:255] [0:255] [0:255] [0:255] [0:255] [0:255] [0:255] [0:255] [0:255] [0:255] [0:255] [0:255] [0:255] [0:255] [0:255] [0:255] [0:255] [0:255] [0:255] [0:255] [0:255] [0:255] [0:255] [0:255] [0:255] [0:255] [0:255] [0:255] [0:255] [0:255] [0:255] [0:255] [0:255] [0:255] [0:255] [0:255] [0:255] [0:255] [0:255] [0:255] [0:255] [0:255] [0:255] [0:255] [0:255] [0:255] [0:255] [0:255] [0:255] [0:255] [0:255] [0:255] [0:255] [0:255] [0:255] [0:255] [0:255] [0:255] [0:255] [0:255] [0:255] [0:255] [0:255] [0:255] [0:255] [0:255] [0:255] [0:255] [0:255] [0:255] [0:255] [0:255] [0:255] [0:255] [0:255] [0:255] [0:255] [0:255] [0:255] [0:255] [0:255] [0:255] [0:255] [0:255] [0:255] [0:255] [0:255] [0:255] [0:255] [0:255] [0:255] [0:255] [0:255] [0:255] [0:255] [0:255] [0:255] [0:255] [0:255] [0:255] [0:255] [0:255] [0:255] [0:255] [0:255] [0:255] [0:255] [0:255] [0:255] [0:255] [0:255] [0:255] [0:255] [0:255] [0:255] [0:255] [0:255] [0:255] [0:255] [0:255] [0:255] [0:255] [0:255] [0:255] [0:255] [0:255] [0:255] [0:255] [0:255] [0:255] [0:255] [0:255] [0:255] [0:255] [0:255] [0:255] [0:255] [0:255] [0:255] [0:255] [0:255] [0:255] [0:255] [0:255] [0:255] [0:255] [0:255] [0:255] [0:255] [0:255] [0:255] [0:255] [0:255] [0:255] [0:255] [0:255] [0:255] [0:255] [0:255] [0:255] [0:255] [0:255] [0:255] [0:255] [0:255] [0:255] [0:255] [0:255] [0:255] [0:255] [0:255] [0:255] [0:255] [0:255] [0:255] [0:255] [0:255] [0:255] [0:255] [0:255] [0:255] [0:255] [0:255] [0:255] [0:255] [0:255] [0:255] [0:255] [0:255] [0:255] [0:255] [0:255] [0:255] [0:255] [0:255] [0:255] [0:255] [0:255] [0:255] [0:255] [0:255] [0:255] [0:255] [0:255] [0:255] [0:255] [0:255] [0:255] [0:255] [0:255] [0:255] [0:255] [0:255] [0:255] [0:255] [0:255] [0:255] [0:255] [0:255] [0:255] [0:255] [0:255] [0:255] [0:255] [0:255] [0:255] [0:255] [0:255] [0:255] [0:255] [0:255] [0:255] [0:255] [0:255] [0:255] [0:255] [0:255] [0:255] [0:255] [0:255] [0:255] [0:255] [0:255] [0:255] [0:255] [0:255] [0:255] [0:255] [0:255] [0:255] [0:255] [0:255] [0:255] [0:255] [0:255] [0:255] [0:255] [0:255] [0:255] [0:255] [0:255] [0:255] [0:255] [0:255] [0:255] [0:255] [0:255] [0:255] [0:255] [0:255] [0:255] [0:255] [0:255] [0:255] [0:255] [0:255] [0:255] [0:255] [0:255] [0:255] [0:255] [0:255] [0:255] [0:255] [0:255] [0:255] [0:255] [0:255] [0:255] [0:255] [0:255] [0:255] [0:255] [0:255] [0:255] [0:255] [0:255] [0:255] [0:255] [0:255] [0:255] [0:255] [0:255] [0:255] [0:255] [0:255] [0:255] [0:255] [0:255] [0:255] [0:255] [0:255] [0:255] [0:255] [0:255] [0:255] [0:255] [0:255] [0:255] [0:255] [0:255] [0:255] [0:255] [0:255] [0:255] [0:255] [0:255] [0:255] [0:255] [0:255] [0:255] [0:255] [0:255] [0:255] [0:255] [0:255] [0:255] [0:255] [0:255] [0:255] [0:255] [0:255] [0:255] [0:255] [0:255] [0:255] [0:255] [0:255] [0:255] [0:255] [0:255] [0:255] [0:255] [0:255] [0:255] [0:255] [0:255] [0:255] [0:255] [0:255] [0:255] [0:255] [0:255] [0:255] [0:255] [0:255] [0:255] [0:255] [0:255] [0:255] [0:255] [0:255] [0:255] [0:255] [0:255] [0:255] [0:255] [0:255] [0:255] [0:255] [0:255] [0:255] [0:255] [0:255] [0:255] [0:255] [0:255] [0:255] [0:255] [0:255] [0:255] [0:255] [0:255] [0:255] [0:255] [0:255] [0:255] [0:255] [0:255] [0:255] [0:255] [0:255] [0:255] [0:255] [0:255] [0:255] [0:255] [0:255] [0:255] [0:255] [0:255] [0:255] [0:255] [0:255] [0:255] [0:255] [0:255] [0:255] [0:255] [0:255] [0:255] [0:255] [0:255] [0:255] [0:255] [0:255] [0:255] [0:255] [0:255] [0:255] [0:255] [0:255] [0:255] [0:255] [0:255] [0:255] [0:255] [0:255] [0:255] [0:255] [0:255] [0:255] [0:255] [0:255] [0:255] [0:255] [0:255] [0:255] [0:255] [0:255] [0:255] [0:255] [0:255] [0:255] [0:255] [0:255] [0:255] [0:255] [0:255] [0:255] [0:255] [0:255] [0:255] [0:255] [0:255] [0:255] [0:255] [0:255] [0:255] [0:255] [0:255] [0:255] [0:255] [0:255] [0:255] [0:255] [0:255] [0:255] [0:255] [0:255] [0:255] [0:255] [0:255] [0:255] [0:255] [0:255] [0:255] [0:255] [0:255] [0:255] [0:255] [0:255] [0:255] [0:255] [0:255] [0:255] [0:255] [0:255] [0:255] [0:255] [0:255] [0:255] [0:255] [0:255] [0:255] [0:255] [0:255] [0:255] [0:255] [0:255] [0:255] [0:255] [0:255] [0:255] [0:255] [0:255] [0:255] [0:255] [0:255] [0:255] [0:255] [0:255] [0:255] [0:255] [0:255] [0:255] [0:255] [0:255] [0:255] [0:255] [0:255] [0:255] [0:255] [0:255] [0:255] [0:255] [0:255] [0:255] [0:255] [0:255] [0:255] [0:255] [0:255] [0:255] [0:255] [0:255] [0:255] [0:255] [0:255] [0:255] [0:255] [0:255] [0:255] [0:255] [0:255] [0:255] [0:255] [0:255] [0:255] [0:255] [0:255] [0:255] [0:255] [0:255] [0:255] [0:255] [0:255] [0:255] [0:255] [0:255] [0:255] [0:255] [0:255] [0:255] [0:255] [0:255] [0:255] [0:255] [0:255] [0:255] [0:255] [0:255] [0:255] [0:255] [0:255] [0:255] [0:255] [0:255] [0:255] [0:255] [0:255] [0:255] [0:255] [0:255] [0:255] [0:255] [0:255] [0:255] [0:255] [0:255] [0:255] [0:255] [0:255] [0:255] [0:255] [0:255] [0:255] [0:255] [0:255] [0:255] [0:255] [0:255] [0:255] [0:255] [0:255] [0:255] [0:255] [0:255] [0:255] [0:255] [0:255] [0:255] [0:255] [0:255] [0:255] [0:255] [0:255] [0:255] [0:255] [0:255] [0:255] [0:255] [0:255] [0:255] [0:255] [0:255] [0:255] [0:255] [0:255] [0:255] [0:255] [0:255] [0:255] [0:255] [0:255] [0:255] [0:255] [0:255] [0:255] [0:255] [0:255] [0:255] [0:255] [0:255] [0:255] [0:255] [0:255] [0:255] [0:255] [0:255] [0:255] [0:255] [0:255] [0:255] [0:255] [0:255] [0:255] [0:255] [0:255] [0:255] [0:255] [0:255] [0:255] [0:255] [0:255] [0:255] [0:255] [0:255] [0:255] [0:255] [0:255] [0:255] [0:255] [0:255] [0:255] [0:255] [0:255] [0:255] [0:255] [0:255] [0:255] [0:255] [0:255] [0:255] [0:255] [0:255] [0:255] [0:255] [0:255] [0:255] [0:255] [0:255] [0:255] [0:255] [0:255] [0:255] [0:255] [0:255] [0:255] [0:255] [0:255] [0:255] [0:255] [0:255] [0:255] [0:255] [0:255] [0:255] [0:255] [0:255] [0:255] [0:255] [0:255] [0:255] [0:255] [0:255] [0:255] [0:255] [0:255] [0:255] [0:255] [0:255] [0:255] [0:255] [0:255] [0:255] [0:255] [0:255] [0:255] [0:255] [0:255] [0:255] [0:255] [0:255] [0:255] [0:255] [0:255] [0:255] [0:255] [0:255] [0:255] [0:255] [0:255] [0:255] [0:255] [0:255] [0:255] [0:255] [0:255] [0:255] [0:255] [0:255] [0:255] [0:255] [0:255] [0:255] [0:255] [0:255] [0:255] [0:255] [0:255] [0:255] [0:255] [0:255] [0:255] [0:255] [0:255] [0:255] [0:255] [0:255] [0:255] [0:255] [0:255] [0:255] [0:255] [0:255] [0:255] [0:255] [0:255] [0:255] [0:255] [0:255] [0:255] [0:255] [0:255] [0:255] [0:255] [0:255] [0:255] [0:255] [0:255] [0:255] [0:255] [0:255] [0:255] [0:255] [0:255] [0:255] [0:255] [0:255] [0:255] [0:255] [0:255] [0:255] [0:255] [0:255] [0:255] [0:255] [0:255] [0:255] [0:255] [0:255] [0:255] [0:255] [0:255] [0:255] [0:255] [0:255] [0:255] [0:255] [0:255] [0:255] [0:255] [0:255] [0:255] [0:255] [0:255] [0:255] [0:255] [0:255] [0:255] [0:255] [0:255] [0:255] [0:255] [0:255] [0:255] [0:255] [0:255] [0:255] [0:255] [0:255] [0:255] [0:255] [0:255] [0:255] [0:255] [0:255] [0:255] [0:255] [0:255] [0:255] [0:255] [0:255] [0:255] [0:255] [0:255] [0:255] [0:255] [0:255] [0:255] [0:255] [0:255] [0:255] [0:255] [0:255] [0:255] [0:255] [0:255] [0:255] [0:255] [0:255] [0:255] [0:255] [0:255] [0:255] [0:255] [0:255] [0:255] [0:255] [0:255] [0:255] [0:255] [0:255] [0:255] [0:255] [0:255] [0:255] [0:255] [0:255] [0:255] [0:255] [0:255] [0:255] [0:255] [0:255] [0:255] [0:255] [0:255] [0:255] [0:255] [0:255] [0:255] [0:255] [0:255] [0:255] [0:255] [0:255] [0:255] [0:255] [0:255] [0:255] [0:255] [0:255] [0:255] [0:255] [0:255] [0:255] [0:255] [0:255] [0:255] [0:255] [0:255] [0:255] [0:255] [0:255] [0:255] [0:255] [0:255] [0:255] [0:255] [0:255] [0:255] [0:255] [0:255] [0:255] [0:255] [0:255] [0:255] [0:255] [0:255] [0:255] [0:255] [0:255] [0:255] [0:255] [0:255] [0:255] [0:255] [0:255] [0:255] [0:255] [0:255] [0:255] [0:255] [0:255] [0:255] [0:255] [0:255] [0:255] [0:255] [0:255] [0:255] [0:255] [0:255] [0:255] [0:255] [0:255] [0:255] [0:255] [0:255] [0:255] [0:255] [0:255] [0:255] [0:255] [0:255] [0:255] [0:255] [0:255] [0:255] [0:255] [0:255] [0:255] [0:255] [0:255] [0:255] [0:255] [0:255] [0:255] [0:255] [0:255] [0:255] [0:255] [0:255] [0:255] [0:255] [0:255] [0:255] [0:255] [0:255] [0:255] [0:255] [0:255] [0:255] [0:255] [0:255] [0:255] [0:255] [0:255] [0:255] [0:255] [0:255] [0:255] [0:255] [0:255] [0:255] [0:255] [0:255] [0:255] [0:255] [0:255] [0:255] [0:255] [0:255] [0:255] [0:255] [0:255] [0:255] [0:255] [0:255] [0:255] [0:255] [0:255] [0:255] [0:255] [0:255] [0:255] [0:255] [0:255] [0:255] [0:255] [0:255] [0:255] [0:255] [0:255] [0:255] [0:255] [0:255] [0:255] [0:255] [0:255] [0:255] [0:255] [0:255] [0:255] [0:255] [0:255] [0:255] [0:255] [0:255] [0:255] [0:255] [0:255] [0:255] [0:255] [0:255] [0:255] [0:255] [0:255] [0:255] [0:255] [0:255] [0:255] [0:255] [0:255] [0:255] [0:255] [0:255] [0:255] [0:255] [0:255] [0:255] [0:255] [0:255] [0:255] [0:255] [0:255] [0:255] [0:255] [0:255] [0:255] [0:255] [0:255] [0:255] [0:255] [0:255] [0:255] [0:255] [0:255] [0:255] [0:255] [0:255] [0:255] [0:255] [0:255] [0:255] [0:255] [0:255] [0:255] [0:255] [0:255] [0:255] [0:255] [0:255] [0:255] [0:255] [0:255] [0:255] [0:255] [0:255] [0:255] [0:255] [0:255] [0:255] [0:255] [0:255] [0:255] [0:255] [0:255] [0:255] [0:255] [0:255] [0:255] [0:255] [0:255] [0:255] [0:255] [0:255] [0:255] [0:255] [0:255] [0:255] [0:255] [0:255] [0:255] [0:255] [0:255] [0:255] [0:255] [0:255] [0:255] [0:255] [0:255] [0:255] [0:255] [0:255] [0:255] [0:255] [0:255] [0:255] [0:255] [0:255] [0:255] [0:255] [0:255] [0:255] [0:255] [0:255] [0:255] [0:255] [0:255] [0:255] [0:255] [0:255] [0:255] [0:255] [0:255] [0:255] [0:255] [0:255] [0:255] [0:255] [0:255] [0:255] [0:255] [0:255] [0:255] [0:255] [0:255] [0:255] [0:255] [0:255] [0:255] [0:255] [0:255] [0:255] [0:255] [0:255] [0:255] [0:255] [0:255] [0:255] [0:255] [0:255] [0:255] [0:255] [0:255] [0:255] [0:255] [0:255] [0:255] [0:255] [0:255] [0:255] [0:255] [0:255] [0:255] [0:255] [0:255] [0:255] [0:255] [0:255] [0:255] [0:255] [0:255] [0:255] [0:255] [0:255] [0:255] [0:255] [0:255] [0:255] [0:255] [0:255] [0:255] [0:255] [0:255] [0:255] [0:255] [0:255] [0:255] [0:255] [0:255] [0:255] [0:255] [0:255] [0:255] [0:255] [0:255] [0:255] [0:255] [0:255] [0:255] [0:255] [0:255] [0:255] [0:255] [0:255] [0:255] [0:255] [0:255] [0:255] [0:255] [0:255] [0:255] [0:255] [0:255] [0:255] [0:255] [0:255] [0:255] [0:255] [0:255] [0:255] [0:255] [0:255] [0:255] [0:255] [0:255] [0:255] [0:255] [0:255] [0:255] [0:255] [0:255] [0:255] [0:255] [0:255] [0:255] [0:255] [0:255] [0:255] [0:255] [0:255] [0:255] [0:255] [0:255] [0:255] [0:255] [0:255] [0:255] [0:255] [0:255] [0:255] [0:255] [0:255] [0:255] [0:255] [0:255] [0:255] [0:255] [0:255] [0:255] [0:255] [0:255] [0:255] [0:255] [0:255] [0:255] [0:255] [0:255] [0:255] [0:255] [0:255] [0:255] [0:255] [0:255] [0:255] [0:255] [0:255] [0:255] [0:255] [0:255] [0:255] [0:255] [0:255] [0:255] [0:255] [0:255] [0:255] [0:255] [0:255] [0:255] [0:255] [0:255] [0:255] [0:255] [0:255] [0:255] [0:255] [0:255] [0:255] [0:255] [0:255] [0:255] [0:255] [0:255] [0:255] [0:255] [0:255] [0:255] [0:255] [0:255] [0:255] [0:255] [0:255] [0:255] [0:255] [0:255] [0:255] [0:255] [0:255] [0:255] [0:255] [0:255] [0:255] [0:255] [0:255] [0:255] [0:255] [0:255] [0:255] [0:255] [0:255] [0:255] [0:255] [0:255] [0:255] [0:255] [0:255] [0:255] [0:255] [0:255] [0:255] [0:255] [0:255] [0:255] [0:255] [0:255] [0:255] [0:255] [0:255] [0:255] [0:255] [0:255] [0:255] [0:255] [0:255] [0:255] [0:255] [0:255] [0:255] [0:255] [0:255] [0:255] [0:255] [0:255] [0:255] [0:255] [0:255] [0:255] [0:255] [0:255] [0:255] [0:255] [0:255] [0:255] [0:255] [0:255] [0:255] [0:255] [0:255] [0:255] [0:255] [0:255] [0:255] [0:255] [0:255] [0:255] [0:255] [0:255] [0:255] [0:255] [0:255] [0:255] [0:255] [0:255] [0:255] [0:255] [0:255] [0:255] [0:255] [0:255] [0:255] [0:255] [0:255] [0:255] [0:255] [0:255] [0:255] [0:255] [0:255] [0:255] [0:255] [0:255] [0:255] [0:255] [0:255] [0:255] [0:255] [0:255] [0:255] [0:255] [0:255] [0:255] [0:255] [0:255] [0:255] [0:255] [0:255] [0:255] [0:255] [0:255] [0:255] [0:255] [0:255] [0:255] [0:255] [0:255] [0:255] [0:255] [0:255] [0:255] [0:255] [0:255] [0:255] [0:255] [0:255] [0:255] [0:255] [0:255] [0:255] [0:255] [0:255] [0:255] [0:255] [0:255] [0:255] [0:255] [0:255] [0:255] [0:255] [0:255] [0:255] [0:255] [0:255] [0:255] [0:255] [0:255] [0:255] [0:255] [0:255] [0:255] [0:255] [0:255] [0:255] [0:255] [0:255] [0:255] [0:255] [0:255] [0:255] [0:255] [0:255] [0:255] [0:255] [0:255] [0:255] [0:255] [0:255] [0:255] [0:255] [0:255] [0:255] [0:255] [0:255] [0:255] [0:255] [0:255] [0:255] [0:255] [0:255] [0:255] [0:255] [0:255] [0:255] [0:255] [0:255] [0:255] [0:255] [0:255] [0:255] [0:255] [0:255] [0:255] [0:255] [0:255] [0:255] [0:255] [0:255] [0:255] [0:255] [0:255] [0:255] [0:255] [0:255] [0:255] [0:255] [0:255] [0:255] [0:255] [0:255] [0:255] [0:255] [0:255] [0:255] [0:255] [0:255] [0:255] [0:255] [0:255] [0:255] [0:255] [0:255] [0:255] [0:255] [0:255] [0:255] [0:255] [0:255] [0:255] [0:255] [0:255] [0:255] [0:255] [0:255] [0:255] [0:255] [0:255] [0:255] [0:255] [0:255] [0:255] [0:255] [0:255] [0:255] [0:255] [0:255] [0:255] [0:255] [0:255] [0:255] [0:255] [0:255] [0:255] [0:255] [0:255] [0:255] [0:255] [0:255] [0:255] [0:255] [0:255] [0:255] [0:255] [0:255] [0:255] [0:255] [0:255] [0:255] [0:255] [0:255] [0:255] [0:255] [0:255] [0:255] [0:255] [0:255] [0:255] [0:255] [0:255] [0:255] [0:255] [0:255] [0:255] [0:255] [0:255] [0:255] [0:255] [0:255] [0:255] [0:255] [0:255] [0:255] [0:255] [0:255] [0:255] [0:255] [0:255] [0:255] [0:255] [0:255] [0:255] [0:255] [0:255] [0:255] [0:255] [0:255] [0:255] [0:255] [0:255] [0:255] [0:255] [0:255] [0:255] [0:255] [0:255] [0:255] [0:255] [0:255] [0:255] [0:255] [0:255] [0:255] [0:255] [0:255] [0:255] [0:255] [0:255] [0:255] [0:255] [0:255] [0:255] [0:255] [0:255] [0:255] [0:255] [0:255] [0:255] [0:255] [0:255] [0:255] [0:255] [0:255] [0:255] [0:255] [0:255] [0:255] [0:255] [0:255] [0:255] [0:255] [0:255] [0:255] [0:255] [0:255] [0:255] [0:255] [0:255] [0:255] [0:255] [0:255] [0:255] [0:255] [0:255] [0:255] [0:255] [0:255] [0:255] [0:255] [0:255] [0:255] [0:255] [0:255] [0:255] [0:255] [0:255] [0:255] [0:255] [0:255] [0:255] [0:255] [0:255] [0:255] [0:255] [0:255] [0:255] [0:255] [0:255] [0:255] [0:255] [0:255] [0:255] [0:255] [0:255] [0:255] [0:255] [0:255] [0:255] [0:255] [0:255] [0:255] [0:255] [0:255] [0:255] [0:255] [0:255] [0:255] [0:255] [0:255] [0:255] [0:255] [0:255] [0:255] [0:255] [0:255] [0:255] [0:255] [0:255] [0:255] [0:255] [0:255] [0:255] [0:255] [0:255] [0:255] [0:255] [0:255] [0:255] [0:255] [0:255] [0:255] [0:255] [0:255] [0:255] [0:255] [0:255] [0:255] [0:255] [0:255] [0:255] [0:255] [0:255] [0:255] [0:255] [0:255] [0:255] [0:255] [0:255] [0:255] [0:255] [0:255] [0:255] [0:255] [0:255] [0:255] [0:255] [0:255] [0:255] [0:255] [0:255] [0:255] [0:255] [0:255] [0:255] [0:255] [0:255] [0:255] [0:255] [0:255] [0:255] [0:255] [0:255] [0:255] [0:255] [0:255] [0:255] [0:255] [0:255] [0:255] [0:255] [0:255] [0:255] [0:255] [0:255] [0:255] [0:255] [0:255] [0:255] [0:255] [0:255] [0:255] [0:255] [0:255] [0:255] [0:255] [0:255] [0:255] [0:255] [0:255] [0:255] [0:255] [0:255] [0:255] [0:255] [0:255] [0:255] [0:255] [0:255] [0:255] [0:255] [0:255] [0:255] [0:255] [0:255] [0:255] [0:255] [0:255] [0:255] [0:255] [0:255] [0:255] [0:255] [0:255] [0:255] [0:255] [0:255] [0:255] [0:255] [0:255] [0:255] [0:255] [0:255] [0:255] [0:255] [0:255] [0:255] [0:255] [0:255] [0:255] [0:255] [0:255] [0:255] [0:255] [0:255] [0:255] [0:255] [0:255] [0:255] [0:255] [0:255] [0:255] [0:255] [0:255] [0:255] [0:255] [0:255] [0:255] [0:255] [0:255] [0:255] [0:255] [0:255] [0:255] [0:255] [0:255] [0:255] [0:255] [0:255] [0:255] [0:255] [0:255] [0:255] [0:255] [0:255] [0:255] [0:255] [0:255] [0:255] [0:255] [0:255] [0:255] [0:255] [0:255] [0:255] [0:255] [0:255] [0:255] [0:255] [0:255] [0:255] [0:255] [0:255] [0:255] [0:255] [0:255] [0:255] [0:255] [0:255] [0:255] [0:255] [0:255] [0:255] [0:255] [0:255] [0:255] [0:255] [0:255] [0:255] [0:255] [0:255] [0:255] [0:255] [0:255] [0:255] [0:255] [0:255] [0:255] [0:255] [0:255] [0:255] [0:255] [0:255] [0:255] [0:255] [0:255] [0:255] [0:255] [0:255] [0:255] [0:255] [0:255] [0:255] [0:255] [0:255] [0:255] [0:255] [0:255] [0:255] [0:255] [0:255] [0:255] [0:255] [0:255] [0:255] [0:255] [0:255] [0:255] [0:255] [0:255] [0:255] [0:255] [0:255] [0:255] [0:255] [0:255] [0:255] [0:255] [0:255] [0:255] [0:255] [0:255] [0:255] [0:255] [0:255] [0:255] [0:255] [0:255] [0:255] [0:255] [0:255] [0:255] [0:255] [0:255] [0:255] [0:255] [0:255] [0:255] [0:255] [0:255] [0:255] [0:255] [0:255] [0:255] [0:255] [0:255] [0:255] [0:255] [0:255] [0:255] [0:255] [0:255] [0:255] [0:255] [0:255] [0:255] [0:255] [0:255] [0:255] [0:255] [0:255] [0:255] [0:255] [0:255] [0:255] [0:255] [0:255] [0:255] [0:255] [0:255] [0:255] [0:255] [0:255] [0:255] [0:255] [0:255] [0:255] [0:255] [0:255] [0:255] [0:255] [0:255] [0:255] [0:255] [0:255] [0:255] [0:255] [0:255] [0:255] [0:255] [0:255] [0:255] [0:255] [0:255] [0:255] [0:255] [0:255] [0:255] [0:255] [0:255] [0:255] [0:255] [0:255] [0:255] [0:255] [0:255] [0:255] [0:255] [0:255] [0:255] [0:255] [0:255] [0:255] [0:255] [0:255] [0:255] [0:255] [0:255] [0:255] [0:255] [0:255] [0:255] [0:255] [0:255] [0:255] [0:255] [0:255] [0:255] [0:255] [0:255] [0:255] [0:255] [0:255] [0:255] [0:255] [0:255] [0:255] [0:255] [0:255] [0:255] [0:255] [0:255] [0:255] [0:255] [0:255] [0:255] [0:255] [0:255] [0:255] [0:255] [0:255] [0:255] [0:255] [0:255] [0:255] [0:255] [0:255] [0:255] [0:255] [0:255] [0:255] [0:255] [0:255] [0:255] [0:255] [0:255] [0:255] [0:255] [0:255] [0:255] [0:255] [0:255] [0:255] [0:255] [0:255] [0:255] [0:255] [0:255] [0:255] [0:255] [0:255] [0:255] [0:255] [0:255] [0:255] [0:255] [0:255] [0:255] [0:255] [0:255] [0:255] [0:255] [0:255] [0:255] [0:255] [0:255] [0:255] [0:255] [0:255] [0:255] [0:255] [0:255] [0:255] [0:255] [0:255] [0:255] [0:255] [0:255] [0:255] [0:255] [0:255] [0:255] [0:255] [0:255] [0:255] [0:255] [0:255] [0:255] [0:255] [0:255] [0:255] [0:255] [0:255] [0:255] [0:255] [0:255] [0:255] [0:255] [0:255] [0:255] [0:255] [0:255] [0:255] [0:255] [0:255] [0:255] [0:255] [0:255] [0:255] [0:255] [0:255] [0:255] [0:255] [0:255] [0:255] [0:255] [0:255] [0:255] [0:255] [0:255] [0:255] [0:255] [0:255] [0:255] [0:255] [0:255] [0:255] [0:255] [0:255] [0:255] [0:255] [0:255] [0:255] [0:255] [0:255] [0:255] [0:255] [0:255] [0:255] [0:255] [0:255] [0:255] [0:255] [0:255] [0:255] [0:255] [0:255] [0:255] [0:255] [0:255] [0:255] [0:255] [0:255] [0:255] [0:255] [0:255] [0:255] [0:255] [0:255] [0:255] [0:255] [0:255] [0:255] [0:255] [0:255] [0:255] [0:255] [0:255] [0:255] [0:255] [0:255] [0:255] [0:255] [0:255] [0:255] [0:255] [0:255] [0:255] [0:255] [0:255] [0:255] [0:255] [0:255] [0:255] [0:255] [0:255] [0:255] [0:255] [0:255] [0:255] [0:255] [0:255] [0:255] [0:255] [0:255] [0:255] [0:255] [0:255] [0:255] [0:255] [0:255] [0:255] [0:255] [0:255] [0:255] [0:255] [0:255] [0:255] [0:255] [0:255] [0:255] [0:255] [0:255] [0:255] [0:255] [0:255] [0:255] [0:255] [0:255] [0:255] [0:255] [0:255] [0:255] [0:255] [0:255] [0:255] [0:255] [0:255] [0:255] [0:255] [0:255] [0:255] [0:255] [0:255] [0:255] [0:255] [0:255] [0:255] [0:255] [0:255] [0:255] [0:255] [0:255] [0:255] [0:255] [0:255] [0:255] [0:255] [0:255] [0:255] [0:255] [0:255] [0:255] [0:255] [0:255] [0:255] [0:255] [0:255] [0:255] [0:255] [0:255] [0:255] [0:255] [0:255] [0:255] [0:255] [0:255] [0:255] [0:255] [0:255] [0:255] [0:255] [0:255] [0:255] [0:255] [0:255] [0:255] [0:255] [0:255] [0:255] [0:255] [0:255] [0:255] [0:255] [0:255] [0:255] [0:255] [0:255] [0:255] [0:255] [0:255] [0:255] [0:255] [0:255] [0:255] [0:255] [0:255] [0:255] [0:255] [0:255] [0:255] [0:255] [0:255] [0:255] [0:255] [0:255] [0:255] [0:255] [0:255] [0:255] [0:255] [0:255] [0:255] [0:255] [0:255] [0:255] [0:255] [0:255] [0:255] [0:255] [0:255] [0:255] [0:255] [0:255] [0:255] [0:255] [0:255] [0:255] [0:255] [0:255] [0:255] [0:255] [0:255] [0:255] [0:255] [0:255] [0:255] [0:255] [0:255] [0:255] [0:255] [0:255] [0:255] [0:255] [0:255] [0:255] [0:255] [0:255] [0:255] [0:255] [0:255] [0:255] [0:255] [0:255] [0:255] [0:255] [0:255] [0:255] [0:255] [0:255] [0:255] [0:255] [0:255] [0:255] [0:255] [0:255] [0:255] [0:255] [0:255] [0:255] [0:255] [0:255] [0:255] [0:255] [0:255] [0:255] [0:255] [0:255] [0:255] [0:255] [0:255] [0:255] [0:255] [0:255] [0:255] [0:255] [0:255] [0:255] [0:255] [0:255] [0:255] [0:255] [0:255] [0:255] [0:255] [0:255] [0:255] [0:255] [0:255] [0:255] [0:255] [0:255] [0:255] [0:255] [0:255] [0:255] [0:255] [0:255] [0:255] [0:255] [0:255] [0:255] [0:255] [0:255] [0:255] [0:255] [0:255] [0:255] [0:255] [0:255] [0:255] [0:255] [0:255] [0:255] [0:255] [0:255] [0:255] [0:255] [0:255] [0:255] [0:255] [0:255] [0:255] [0:255] [0:255] [0:255] [0:255] [0:255] [0:255] [0:255] [0:255] [0:255] [0:255] [0:255] [0:255] [0:255] [0:255] [0:255] [0:255] [0:255] [0:255] [0:255] [0:255] [0:255] [0:255] [0:255] [0:255] [0:255] [0:255] [0:255] [0:255] [0:255] [0:255] [0:255] [0:255] [0:255] [0:255] [0:255] [0:255] [0:255] [0:255] [0:255] [0:255] [0:255] [0:255] [0:255] [0:255] [0:255] [0:255] [0:255] [0:255] [0:255] [0:255] [0:255] [0:255] [0:255] [0:255] [0:255] [0:255] [0:255] [0:255] [0:255] [0:255] [0:255] [0:255] [0:255] [0:255] [0:255] [0:255] [0:255] [0:255] [0:255] [0:255] [0:255] [0:255] [0:255] [0:255] [0:255] [0:255] [0:255] [0:255] [0:255] [0:255] [0:255] [0:255] [0:255] [0:255] [0:255] [0:255] [0:255] [0:255] [0:255] [0:255] [0:255] [0:255] [0:255] [0:255] [0:255] [0:255] [0:255] [0:255] [0:255] [0:255] [0:255] [0:255] [0:255] [0:255] [0:255] [0:255] [0:255] [0:255] [0:255] [0:255] [0:255] [0:255] [0:255] [0:255] [0:255] [0:255] [0:255] [0:255] [0:255] [0:255] [0:255] [0:255] [0:255] [0:255] [0:255] [0:255] [0:255] [0:255] [0:255] [0:255] [0:255] [0:255] [0:255] [0:255] [0:255] [0:255] [0:255] [0:255] [0:255] [0:255] [0:255] [0:255] [0:255] [0:255] [0:255] [0:255] [0:255] [0:255] [0:255] [0:255] [0:255] [0:255] [0:255] [0:255] [0:255] [0:255] [0:255] [0:255] [0:255] [0:255] [0:255] [0:255] [0:255] [0:255] [0:255] [0:255] [0:255] [0:255] [0:255] [0:255] [0:255] [0:255] [0:255] [0:255] [0:255] [0:255] [0:255] [0:255] [0:255] [0:255] [0:255] [0:255] [0:255] [0:255] [0:255] [0:255] [0:255] [0:255] [0:255] [0:255] [0:255] [0:255] [0:255] [0:255] [0:255] [0:255] [0:255] [0:255] [0:255] [0:255] [0:255] [0:255] [0:255] [0:255] [0:255] [0:255] [0:255] [0:255] [0:255] [0:255] [0:255] [0:255] [0:255] [0:255] [0:255] [0:255] [0:255] [0:255] [0:255] [0:255] [0:255] [0:255] [0:255] [0:255] [0:255] [0:255] [0:255] [0:255] [0:255] [0:255] [0:255] [0:255] [0:255] [0:255] [0:255] [0:255] [0:255] [0:255] [0:255] [0:255] [0:255] [0:255] [0:255] [0:255] [0:255] [0:255] [0:255] [0:255] [0:255] [0:255] [0:255] [0:255] [0:255] [0:255] [0:255] [0:255] [0:255] [0:255] [0:255] [0:255] [0:255] [0:255] [0:255] [0:255] [0:255] [0:255] [0:255] [0:255] [0:255] [0:255] [0:255] [0:255] [0:255] [0:255] [0:255] [0:255] [0:255] [0:255] [0:255] [0:255] [0:255] [0:255] [0:255] [0:255] [0:255] [0:255] [0:255] [0:255] [0:255] [0:255] [0:255] [0:255] [0:255] [0:255] [0:255] [0:255] [0:255] [0:255] [0:255] [0:255] [0:255] [0:255] [0:255] [0:255] [0:255] [0:255]
tree_sizes=2499 2518 2540 2547 2526 2511 2520 2514 2506 2525 2538 2561 2576 2576 2580 2555 2579 2556 2553 2568 2561 2573 2586 2590 2569 2570 2568 2567 2566 2566 2555 2565 2591 2584 2592 2571 2584 2564 2569 2583 2560 2570 2588 2579 2577 2570 2590 2583 2577 2593 2561 2587 2595 2594 2588 2573 2584 2578 2576 2582 2579 2584 2603 2591 2593 2582 2588 2580 2590 2586 2553 2577 2586 2585 2597 2586 2593 2596 2601 2597 2575 2584 2590 2593 2581 2595 2601 2587 2581 2591 2597 2584 2613 2591 2620 2593 2589 2583 2581 2592 2574 2592 2613 2593 2617 2596 2597 2591 2587 2609 2579 2605 2615 2592 2606 2583 2613 2589 2591 2606 2595 2582 2604 2601 2595 2599 2591 2584 2611 2610 2576 2584 2602 2604 2603 2601 2590 2601 2589 2605 2599 2600 2601 2604 2609 2588 2602 2602 2594 2599 2582 2599 2616 2586 2612 2593 2604 2599 2590 2599 2574 2602 2592 2606 2595 2594 2605 2615 2585 2598 2591 2594 2606 2595 2612 2610 2613 2602 2592 2602 2570 2594 2593 2615 2608 2593 2599 2599 2589 2604 2581 2593 2621 2587 2598 2588 2607 2609 2598 2597 2582 2601 2595 2594 2627 2587 2615 2614 2591 2589 2585 2616 2599 2599 2603 2604 2598 2610 2600 2611 2576 2607 2618 2601 2595 2595 2602 2602 2587 2608 2592 2601 2604 2590 2612 2594 2615 2609 2587 2598 2583 2609 2603 2587 2618 2582 2599 2602 2600 2587 2610 2608 2594 2607 2614 2599 2614 2599 2605 2610 2581 2597 2594 2600 2605 2597 2604 2620 2599 2608 2591 2610 2603 2595 2609 2591 2605 2617 2597 2613 2584 2605 2620 2594 2589 2599 2595 2610 2595 2602 2613 2606 2616 2601 2614 2593 2605 2618 2595 2604 2607 2621 2616 2595 2603 2589 2617 2600 2603 2602 2597 2603 2604 2610 2600 2609 2618 2594 2603 2599 2599 2603 2594 2620 2592 2594 2607 2615 2598 2609 2592 2614 2607 2600 2594 2607 2595 2603 2622 2597 2574 2625 2603 2605 2574 2598 2611 2608 2585 2605 2596 2602 2593 2596 2606 2593 2619 2616 2589 2610 2589 2606 2604 2616 2596 2611 2624 2610 2582 2605 2605 2607 2606 2594 2609 2587 2610 2605 2593 2593 2584 2610 2606 2592 2591 2601 2600 2604 2608 2621 2592 2603 2600 2587 2600 2582 2613 2607 2584 2607 2601 2599 2620 2618 2612 2596 2608 2616 2598 2601 2600 2615 2600 2610 2597 2602 2611 2607 2596 2618 2592 2612 2588 2615 2601 2609 2610 2597 2590 2615 2583 2605 2620 2632 2632 2599 2607 2616 2604 2608 2606 2618 2622 2620 2578 2593 2616 2607 2601 2605 2607 2618 2599 2613 2600 2611 2625 2596 2598 2612 2599 2610 2597 2601 2600 2592 2624 2618 2600 2613 2592 2613 2578 2619 2603 2597 2591 2599 2607 2597 2591 2611 2584 2591 2612 2572 2605 2604 2609 2614 2590 2618 2607 2611 2576 2596 2603 2619 2591 2614 2596 2619 2611 2600 2595 2605 2609 2612 2610 2615 2606 2613 2605 2601 2600 2622 2609 2615 2608 2609 2600 2609 2578 2598 2610 2585 2599 2609 2599 2596 2606 2614 2613 2607 2611 2592 2596 2616 2621 2607 2584 2607 2595 2592 2578 2625 2619 2610 2603 2610 2591 2607 2620 2603 2595 2594 2606 2595 2595 2604 2598 2603 2590 2610 2602 2595 2630 2624 2613 2629 2571 2603 2592 2625 2602 2612 2604 2619 2606 2625 2602 2600 2604 2638 2615 2610 2619 2594 2595 2595 2604 2616 2587 2603 2602 2622 2612 2600 2605 2603 2590 2612 2610 2588 2602 2593 2610 2630 2618 2615 2604 2614 2607 2612 2608 2612 2597 2598 2590 2597 2596 2609 2618 2615 2607 2603 2603 2599 2617 2583 2594 2616 2607 2624 2594 2612 2624 2619 2610 2627 2610 2605 2592 2579 2626 2609 2609 2607 2588 2596 2591 2620 2597 2602 2594 2608 2625 2591 2604 2601 2590 2609 2613 2599 2614 2620 2612 2619 2620 2619 2618 2618 2593 2605 2623 2594 2590 2621 2612 2615 2595 2606 2595 2617 2600 2619 2600 2592 2619 2602 2592 2608 2595 2614 2617 2625 2618 2617 2612 2598 2593 2619 2586 2618 2597 2608 2615 2621 2611 2608 2589 2610 2604 2621 2592 2609 2627 2607 2605 2601 2590 2622 2613 2595 2588 2610 2606 2619 2607 2605 2589 2612 2600 2601 2591 2623 2606 2591 2606 2608 2591 2619 2593 2614 2571 2605 2594 2631 2610 2621 2615 2605 2586 2614 2606 2612 2638 2617 2608 2616 2600 2620 2615 2600 2600 2608 2633 2621 2607 2589 2596 2610 2606 2598 2606 2601 2590 2611 2620 2617 2610 2613 2619 2593 2599 2608 2632 2633 2611 2622 2583 2608 2585 2597 2616 2583 2634 2625 2600 2630 2618 2609 2611 2628 2595 2602 2609 2591 2608 2611 2598 2615 2629 2629 2588 2599 2642 2603 2603 2613 2597 2619 2564 2595 2580 2599 2625 2637 2610 2602 2586 2617 2613 2613 2606 2620 2592 2608 2611 2606 2595 2613 2596 2607 2594 2594 2615 2612 2609 2612 2608 2599 2565 2602 2615 2615 2608 2621 2608 2612 2596 2619 2611 2614 2602 2620 2582 2604 2611 2608 2600 2625 2617 2611 2591 2601 2618 2625 2605 2618 2585 2601 2599 2606 2594 2610 2607 2603 2609 2605 2579 2628 2578 2600 2561 2608 2616 2608 2607 2588 2610 2608 2605 2592 2638 2596 2621 2627 2598 2584 2603 2632 2579 2574 2548 2594 2606 2618 2615 2613 2594 2615 2596 2617 2597 2592 2610 2614 2605 2611 2611 2624 2619 2589 2592 2606 2621 2608 2621 2595 2609 2616 2597 2609 2597 2617 2590 2622 2602 2611 2615 2606 2569 2595 2597 2585 2612 2626 2626 2616 2596 2621 2565 2622 2586 2627 2615 2608 2609 2623 2577 2630 2611 2598 2611 2589 2619 2615 2610 2600 2607 2612 2612 2594 2603 2610 2605 2613 2585 2607 2606 2615 2612 2614 2575 2628 2642 2604 2609 2614

Tree=0
num_leaves=31
num_cat=0
split_feature=2260 2923 2812 212 2247 2320 2382 2328 280 2117 1784 625 2788 2864 1934 2281 2689 2903 2345 2512 98 2716 3020 497 724 2284 100 966 2105 2866
split_gain=1343.52 1022.67 605.077 249.407 244.191 178.706 138.688 135.623 190.108 122.199 108.286 105.528 97.4614 83.3618 80.1572 69.6045 68.8075 67.0583 61.5342 60.3347 56.0449 55.0348 53.4582 49.5648 48.9354 48.7284 47.3134 45.9161 42.5881 40.9579
threshold=158.50000000000003 170.50000000000003 163.50000000000003 150.50000000000003 140.50000000000003 183.50000000000003 156.50000000000003 118.50000000000001 113.50000000000001 157.50000000000003 69.500000000000014 148.50000000000003 119.50000000000001 179.50000000000003 65.500000000000014 165.50000000000003 143.50000000000003 139.50000000000003 108.50000000000001 171.50000000000003 249.50000000000003 127.50000000000001 145.50000000000003 55.500000000000007 181.50000000000003 127.50000000000001 89.500000000000014 136.50000000000003 183.50000000000003 140.50000000000003
decision_type=2 2 2 2 2 2 2 2 2 2 2 2 2 2 2 2 2 2 2 2 2 2 2 2 2 2 2 2 2 2
left_child=7 4 15 16 -2 23 -6 -1 12 -7 -8 14 -9 -11 -12 -3 -4 -14 -19 29 27 -17 -18 -5 -23 -10 -20 -15 -29 -16
right_child=1 2 3 5 6 9 10 8 25 13 11 -13 17 20 19 21 22 18 26 -21 -22 24 -24 -25 -26 -27 -28 28 -30 -31
leaf_value=-2.3388654691514228 -2.3310517042370491 -2.3271148589081045 -2.19941049829497 -2.0622469457346 -2.2925552572864327 -2.2969785714566022 -2.2899216971570877 -2.2822408083768688 -2.3344975328211537 -2.1426404628432731 -2.2748073190105447 -2.2667635614662087 -2.2309005117007956 -2.139285441902965 -2.221849248713478 -2.27743040197924 -2.169015363404033 -2.2800156520205022 -1.9377202528525777 -2.1113893119280776 -2.1131441130368755 -2.0974569026714809 -1.9079169614768976 -2.2506137721255812 -2.2914739846424084 -2.2984051287629099 -2.1544369561137504 -2.1968503346034396 -1.9112270946709962 -2.1270548748762153
leaf_count=24009 3589 573 56 92 3761 109 1360 710 4817 281 440 1295 310 66 909 413 47 64 148 761 161 260 596 496 100 3655 90 31 450 351
internal_value=0 0.558162 1.64076 2.35383 0.234148 1.86306 0.443906 -0.267448 -0.0336941 2.42461 0.696508 0.902852 0.797613 2.68565 1.18944 0.377249 3.53759 1.48693 2.27741 1.38793 3.11676 0.838724 3.75583 0.814437 1.51235 -0.163414 2.82913 3.47654 3.7295 1.07143
internal_count=50000 16197 3731 2385 12466 1686 8877 33803 9794 1098 5116 3756 1322 989 2461 1346 699 612 302 2021 708 773 643 588 360 8472 238 547 481 1260
shrinkage=1


Tree=1
num_leaves=31
num_cat=0
split_feature=1902 1809 1964 2543 1770 3008 2573 1803 494 986 334 2510 2266 2514 700 1933 3014 3057 1815 684 1872 630 967 561 1876 2114 1748 1870 1518 2047
split_gain=952.721 458.302 247.745 222.841 177.797 166.17 116.982 115.444 95.6813 91.1498 88.454 77.3145 71.4546 75.25 67.2448 65.5794 65.5667 65.0544 73.082 59.4708 56.6994 55.8112 53.1391 52.9745 51.964 52.3629 51.5847 51.2139 48.958 48.5756
threshold=45.500000000000007 46.500000000000007 37.500000000000007 99.500000000000014 51.500000000000007 84.500000000000014 191.50000000000003 37.500000000000007 188.50000000000003 252.50000000000003 133.50000000000003 179.50000000000003 173.50000000000003 89.500000000000014 85.500000000000014 36.500000000000007 98.500000000000014 87.500000000000014 41.500000000000007 67.500000000000014 11.500000000000002 78.500000000000014 251.50000000000003 143.50000000000003 24.500000000000004 174.50000000000003 85.500000000000014 44.500000000000007 77.500000000000014 39.500000000000007
decision_type=2 2 2 2 2 2 2 2 2 2 2 2 2 2 2 2 2 2 2 2 2 2 2 2 2 2 2 2 2 2
left_child=3 7 6 8 16 24 -3 12 20 15 11 -7 13 23 22 -6 -4 -9 -19 -17 -1 -12 -11 -2 25 -5 -18 -21 -10 -8
right_child=1 2 4 5 9 10 29 17 28 14 21 -13 -14 -15 -16 19 26 18 -20 27 -22 -23 -24 -25 -26 -27 -28 -29 -30 -31
leaf_value=-2.200298250805456 -2.2743519456326249 -2.2624006443306985 -2.3112013496727166 -2.1212125573051326 -2.2236377315442959 -2.1329985065457926 -2.3025850950636513 -2.3074674738106684 -1.959079639082983 -2.301643475536427 -2.0982200283872254 -1.9919790537425521 -2.2625122378067108 -2.0867419166301184 -2.2904085356979058 -2.3118965715389312 -2.2066255050620107 -2.1719959648105327 -2.2721618165292963 -2.2662947747362057 -2.2907460429229465 -2.2212540967639924 -2.0216022065264592 -2.0829113064601859 -2.2618331420046651 -2.2916304791553839 -2.2864758225124562 -2.3427339957837909 -2.1931574924302017 -2.0456406665724169
leaf_count=447 305 1265 1728 340 285 723 50 1502 71 59 280 308 488 479 730 4433 891 579 1344 496 2778 763 104 109 1321 142 907 26684 165 224
internal_value=0 -0.134937 -0.221982 0.784501 -0.261234 1.17258 0.704281 0.5507 0.34977 -0.315313 1.62756 2.11715 1.126 1.52233 0.427398 -0.336106 0.241697 0.318735 0.605824 -0.346253 0.243755 1.1436 1.79618 0.786366 0.649227 1.31166 0.556791 -0.38754 1.79849 2.10057
internal_count=50000 42662 37856 7338 36317 3877 1539 4806 3461 32791 2074 1031 1381 893 893 31898 3526 3425 1923 31613 3225 1043 163 414 1803 482 1798 27180 236 274
shrinkage=1


Tree=2
num_leaves=31
num_cat=0
split_feature=2512 1595 1669 1315 1529 1880 2143 1543 1246 2415 2507 1399 557 688 2101 2848 493 1046 2214 2419 1874 1212 1378 1864 1784 2402 2264 2598 1337 2976
split_gain=215.561 197.15 223.871 177.461 117.766 103.787 103.744 101.135 98.1176 80.2345 69.1243 57.0292 58.2873 56.5848 42.911 42.041 42.6293 41.404 38.2309 37.4976 37.6898 36.5275 33.5183 33.4577 32.4515 33.5694 32.4353 32.3541 31.055 32.6977
threshold=133.50000000000003 110.50000000000001 107.50000000000001 112.50000000000001 116.50000000000001 94.500000000000014 116.50000000000001 108.50000000000001 93.500000000000014 124.50000000000001 150.50000000000003 109.50000000000001 164.50000000000003 128.50000000000003 169.50000000000003 102.50000000000001 117.50000000000001 100.50000000000001 157.50000000000003 125.50000000000001 195.50000000000003 87.500000000000014 97.500000000000014 103.50000000000001 71.500000000000014 92.500000000000014 160.50000000000003 108.50000000000001 107.50000000000001 116.50000000000001
decision_type=2 2 2 2 2 2 2 2 2 2 2 2 2 2 2 2 2 2 2 2 2 2 2 2 2 2 2 2 2 2
left_child=1 6 14 -4 26 -6 13 -7 -9 11 18 -10 17 15 21 16 -1 -13 22 20 23 -3 -2 -11 -24 27 -5 -26 -19 -30
right_child=10 2 3 4 5 7 -8 8 9 19 -12 12 -14 -15 -16 -17 -18 28 -20 -21 -22 -23 24 -25 25 -27 -28 -29 29 -31
leaf_value=-2.2451013676131879 -2.3148792716719786 -2.3256784532616477 -2.301455216547875 -2.2604975555892475 -2.2824792762061645 -2.2660992066764361 -2.3323066138772703 -2.3069942658657316 -2.2246912791862719 -2.2899145305481992 -2.3378688382398196 -2.2295823447753218 -2.1964581869920456 -2.316379401872632 -2.3345580848370213 -2.3093859144662563 -2.2945629931717413 -2.2527766690373912 -2.3302911997447073 -2.2524307771899865 -2.3239526151045022 -2.2783415675860219 -2.325517352323383 -2.0901668075987199 -2.1708390714974892 -2.2793622769117263 -2.3254127814224632 -2.3122269677432419 -2.0304762684209763 -2.112239023093184
leaf_count=2305 2517 1352 2901 1155 1050 1008 6731 315 383 57 9263 121 457 3818 2238 1789 1669 58 2713 720 65 2743 579 255 350 1488 679 121 490 610
internal_value=0 0.111232 0.291602 0.505618 0.698804 0.868869 -0.0729524 1.02335 1.21133 1.3343 -0.215326 1.60217 1.78379 0.0846003 -0.0572837 0.232036 0.367108 2.04196 -0.0513503 0.816874 1.4191 0.0861484 0.0697879 1.75926 0.260923 0.405819 0.18054 0.954234 2.17904 2.26768
internal_count=50000 32969 16657 10324 7423 5589 16312 4539 3531 3216 17031 2119 1736 9581 6333 5763 3974 1279 7768 1097 377 4095 5055 312 2538 1959 1834 471 1158 1100
shrinkage=1


Tree=3
num_leaves=31
num_cat=0
split_feature=2255 2831 2015 2879 2079 2845 1888 891 1920 2883 655 903 2961 2958 2819 882 783 1566 973 2151 908 1617 1558 879 2887 1776 2286 2699 1696 1574
split_gain=265.311 189.553 110.978 84.9794 84.1872 80.0019 59.8503 55.5767 54.5815 52.6445 52.2182 49.4841 43.702 41.7049 38.8136 36.3143 35.9701 40.1947 38.5223 34.9751 33.676 32.2344 31.1214 30.2173 29.4037 31.1861 29.0968 28.2392 27.4776 27.0972
threshold=134.50000000000003 135.50000000000003 36.500000000000007 42.500000000000007 133.50000000000003 164.50000000000003 86.500000000000014 190.50000000000003 50.500000000000007 137.50000000000003 102.50000000000001 90.500000000000014 103.50000000000001 70.500000000000014 41.500000000000007 205.50000000000003 67.500000000000014 59.500000000000007 198.50000000000003 144.50000000000003 95.500000000000014 116.50000000000001 142.50000000000003 63.500000000000007 133.50000000000003 99.500000000000014 86.500000000000014 55.500000000000007 97.500000000000014 87.500000000000014
decision_type=2 2 2 2 2 2 2 2 2 2 2 2 2 2 2 2 2 2 2 2 2 2 2 2 2 2 2 2 2 2
left_child=1 2 11 13 16 8 23 19 12 15 -5 -1 -4 -3 -12 28 -2 -18 -19 -6 -16 -22 24 -7 -13 -26 27 -25 -10 -17
right_child=4 3 5 10 7 6 -8 -9 9 -11 14 22 -14 -15 20 29 17 18 -20 -21 21 -23 -24 26 25 -27 -28 -29 -30 -31
leaf_value=-2.2750295412189696 -2.3326794249423735 -2.2632332456550839 -2.2870933097913633 -2.3050360753036312 -2.3095149804940904 -2.2642439393847154 -2.2786844009065268 -2.3016018109555767 -2.3068213112902631 -2.2811135069754682 -2.1760163854442625 -2.2031573473027466 -2.194836142419613 -2.1463170516175794 -2.3033787458080255 -2.1763848285507725 -2.2436511647888171 -2.3092373780019355 -2.2365383657356643 -2.3442172162804171 -2.2788486529114569 -2.2284465011379386 -2.2829091703593676 -2.2085680068839064 -2.1613814001270271 -1.9333040722400012 -2.2308258402597927 -1.9965054494973464 -2.3284874539283011 -2.2933528313025602
leaf_count=1250 1331 240 1603 1224 1908 142 1741 2712 5272 2546 363 466 347 577 700 162 888 3090 466 10454 1086 2009 192 52 96 51 96 106 8487 343
internal_value=0 0.145202 0.0464254 0.510925 -0.203021 -0.00497149 0.42713 -0.295726 -0.0541933 -0.0974949 0.403402 0.569073 0.319088 1.21923 0.529368 -0.153222 0.038961 0.140764 0.0287464 -0.36276 0.458937 0.564531 1.02484 1.25421 1.28421 2.20333 1.74103 2.36287 -0.176006 0.467547
internal_count=50000 29151 22952 6199 20849 20897 2137 15074 18760 16810 5382 2055 1950 817 4158 14264 5775 4444 3556 12362 3795 3095 805 396 613 147 254 158 13759 505
shrinkage=1


Tree=4
num_leaves=31
num_cat=0
split_feature=2108 2509 1991 2113 1851 2968 2388 27 1940 272 2380 2993 1912 1267 3067 2141 2478 2638 1029 2598 1960 446 3013 2481 405 2506 824 1529 1757 2966
split_gain=617.34 352.228 265.699 175.458 130.101 149.378 117.645 87.4551 74.5225 77.4054 62.1138 53.5541 50.9935 46.8526 45.5966 43.5749 42.8186 39.7697 37.7399 37.3615 35.2302 35.1414 33.6004 33.4687 33.1763 32.9874 32.7846 32.5834 31.0091 32.6026
threshold=137.50000000000003 130.50000000000003 79.500000000000014 115.50000000000001 87.500000000000014 137.50000000000003 131.50000000000003 90.500000000000014 117.50000000000001 142.50000000000003 44.500000000000007 147.50000000000003 121.50000000000001 84.500000000000014 125.50000000000001 163.50000000000003 172.50000000000003 125.50000000000001 128.50000000000003 174.50000000000003 45.500000000000007 124.50000000000001 96.500000000000014 102.50000000000001 177.50000000000003 131.50000000000003 80.500000000000014 119.50000000000001 138.50000000000003 179.50000000000003
decision_type=2 2 2 2 2 2 2 2 2 2 2 2 2 2 2 2 2 2 2 2 2 2 2 2 2 2 2 2 2 2
left_child=1 2 20 4 22 6 7 8 14 11 -9 18 -3 -12 23 26 28 25 19 21 -1 24 -4 -6 -10 -15 -2 -23 -14 -30
right_child=15 12 3 -5 5 -7 -8 10 9 -11 13 -13 16 17 -16 -17 -18 -19 -20 -21 -22 27 -24 -25 -26 -27 -28 -29 29 -31
leaf_value=-2.3303493802104667 -2.3416085451590187 -2.3348281921106806 -2.247666891547567 -2.2902210997877877 -2.1432382581103582 -2.2699000619768515 -2.2740458305132605 -2.2859905794994577 -1.9839049546137812 -2.2087781792121768 -2.2584894326295717 -2.2378657405481661 -2.3016522593006736 -2.1480984031888801 -2.3157023781998403 -2.3364288547706584 -2.3277616713086404 -2.2663975335999713 -2.2172955854921415 -2.3154056070881617 -2.2904300366856165 -2.2539739869707147 -2.2988757067035279 -2.2541450323897609 -2.2119418258377248 -2.2801679424593897 -2.2995716506517705 -2.0434897325860035 -2.2186607503925635 -2.3271197805115724
leaf_count=2059 1445 4790 1569 3370 592 1851 839 462 527 305 446 97 1072 1341 144 17937 1463 218 71 26 3044 64 1303 203 38 114 3595 113 705 197
internal_value=0 0.241502 0.419534 0.59061 0.743055 0.907335 1.09921 1.24262 1.59021 1.96929 0.949029 2.30532 -0.165242 1.11976 1.08922 -0.284028 0.053826 1.30072 2.49702 2.64902 -0.0395193 2.74633 0.316852 1.31027 3.03343 1.44139 -0.090388 1.82988 0.280311 0.602365
internal_count=50000 27023 18796 13693 10323 7451 5600 4761 2180 1241 2581 936 8227 2119 939 22977 3437 1673 839 768 5103 742 2872 795 565 1455 5040 177 1974 902
shrinkage=1


Tree=5
num_leaves=31
num_cat=0
split_feature=2050 2733 241 2494 749 242 269 1116 2400 1168 724 1727 2864 2078 1393 2836 734 2905 1804 693 561 659 628 812 1421 1495 93 851 1219 1372
split_gain=528.741 430.533 328.113 163.454 161.543 139.966 107.756 84.246 81.6178 76.3504 75.3912 68.6464 66.988 64.0924 57.8423 52.2517 46.3489 45.9272 45.8355 47.7504 42.1111 40.2917 39.6986 38.9861 38.6718 38.3678 37.9924 35.1506 34.6429 34.3998
threshold=166.50000000000003 136.50000000000003 196.50000000000003 92.500000000000014 143.50000000000003 182.50000000000003 166.50000000000003 66.500000000000014 85.500000000000014 128.50000000000003 174.50000000000003 148.50000000000003 90.500000000000014 156.50000000000003 39.500000000000007 150.50000000000003 178.50000000000003 141.50000000000003 141.50000000000003 178.50000000000003 143.50000000000003 109.50000000000001 116.50000000000001 137.50000000000003 51.500000000000007 39.500000000000007 64.500000000000014 94.500000000000014 39.500000000000007 52.500000000000007
decision_type=2 2 2 2 2 2 2 2 2 2 2 2 2 2 2 2 2 2 2 2 2 2 2 2 2 2 2 2 2 2
left_child=1 5 4 12 -3 10 11 9 27 -7 14 18 -4 23 26 -12 -17 28 -6 25 -5 -11 -14 -2 -21 -20 -1 -8 -9 -29
right_child=13 2 3 20 6 7 8 17 -10 21 15 -13 22 -15 -16 16 -18 -19 19 24 -22 -23 -24 -25 -26 -27 -28 29 -30 -31
leaf_value=-2.3172157469074603 -2.3223344504448122 -2.3041964162470596 -2.1584878817881616 -2.2773770692181006 -2.276818960727796 -2.252054668273578 -2.2119418258377248 -2.1729554734824879 -2.2213403214947909 -2.208382202361812 -2.2949090764825386 -2.2955288442594632 -2.1378341474383302 -2.3396093093787549 -2.3173318943706427 -2.1922281386173732 -2.3005525748646432 -2.2110818327710651 -2.1039033748193985 -1.9735252864345443 -2.147029549166255 -2.0336082140741651 -1.9245821155301623 -2.2672133946219257 -2.1680172021841577 -2.2463343744222199 -2.2382543612009509 -1.94391065339547 -2.297656779957455 -2.1013712886957712
leaf_count=543 1986 2379 128 227 649 398 95 132 532 115 1889 1118 58 15889 15574 663 328 510 118 65 350 202 296 1112 450 959 899 114 1984 238
internal_value=0 0.189652 0.669724 1.8891 0.477478 0.0290007 0.748169 0.475407 1.43627 1.1927 -0.0459612 0.547617 2.90226 -0.309773 -0.105652 0.306713 0.745039 0.280105 0.785612 1.00084 1.04275 2.05573 3.43063 0.000358634 1.59115 0.71856 0.34597 2.17872 0.127074 2.5221
internal_count=50000 31013 7776 1059 6717 23237 4338 3341 979 715 19896 3359 482 18987 17016 2880 991 2626 2241 1592 577 317 354 3098 515 1077 1442 447 2116 352
shrinkage=1


Tree=6
num_leaves=31
num_cat=0
split_feature=2257 2535 1550 2574 434 2418 2651 2258 2056 367 210 1618 1552 2520 2319 2591 2801 1519 1549 241 1233 1472 302 910 1536 1529 439 2522 428 305
split_gain=834.864 336.203 390.889 236.101 201.618 183.997 144.843 113.831 107.798 79.8951 77.8246 75.7092 71.77 59.8547 57.1399 45.5213 45.5199 44.0073 43.6951 42.9972 42.3381 41.8683 52.8762 41.6911 40.8823 40.3864 40.0881 39.4671 37.8728 36.8684
threshold=117.50000000000001 126.50000000000001 76.500000000000014 153.50000000000003 86.500000000000014 128.50000000000003 63.500000000000007 161.50000000000003 170.50000000000003 72.500000000000014 137.50000000000003 89.500000000000014 94.500000000000014 70.500000000000014 64.500000000000014 243.50000000000003 60.500000000000007 59.500000000000007 109.50000000000001 99.500000000000014 122.50000000000001 77.500000000000014 52.500000000000007 189.50000000000003 254.50000000000003 90.500000000000014 111.50000000000001 39.500000000000007 127.50000000000001 87.500000000000014
decision_type=2 2 2 2 2 2 2 2 2 2 2 2 2 2 2 2 2 2 2 2 2 2 2 2 2 2 2 2 2 2
left_child=1 2 16 4 -4 6 8 10 9 -6 -2 26 -8 18 21 29 17 -1 -14 -7 -3 22 -13 -24 -22 -23 -11 -19 -5 -15
right_child=7 20 3 28 5 19 12 -9 -10 11 -12 14 13 15 -16 -17 -18 27 -20 -21 24 25 23 -25 -26 -27 -28 -29 -30 -31
leaf_value=-2.3085438472805668 -2.3351512950037612 -2.32625967146598 -2.2825725884888053 -2.3364804213750285 -2.2474321194219762 -2.321331883832928 -2.2680356223607823 -2.3460167958771656 -2.2795965907438389 -2.1263946298125189 -2.2920306999871056 -2.2192517669043319 -2.2187467164306391 -2.2823830761159374 -2.1324927612692943 -2.0046053155848731 -2.323855120716483 -2.1695761819918422 -2.1040876775738373 -2.2411479425043064 -2.2790754407718534 -2.0140910351415409 -1.9282043681313379 -2.19941049829497 -1.9941559954395041 -2.1582336395910229 -2.2437072840274985 -2.2723706719883423 -2.2760051286555454 -2.2054400870261661
leaf_count=1557 4519 5646 2132 949 276 649 1005 15305 290 350 4790 48 275 440 746 55 3419 274 562 869 794 197 314 35 29 239 301 855 1461 1619
internal_value=0 0.299903 0.458523 0.692406 0.846418 1.01303 1.17973 -0.309309 1.59037 1.74781 -0.103782 1.89586 0.889507 1.07478 2.17472 0.863555 -0.0323051 0.197319 1.60826 0.271556 -0.163944 2.59904 3.15281 3.47182 0.335493 2.0948 1.21949 0.551619 0.0276625 0.807026
internal_count=50000 25386 18917 12812 10402 8270 6752 24614 2796 2506 9309 2230 3956 2951 1579 2114 6105 2686 837 1518 6469 833 397 349 823 436 651 1129 2410 2059
shrinkage=1


Tree=7
num_leaves=31
num_cat=0
split_feature=2575 1744 1525 2058 2610 3063 1023 1320 1775 1547 397 2304 2222 1696 1385 655 1712 1680 1289 2996 1778 1710 1334 1273 846 1336 840 2894 2480 553
split_gain=517.345 261.806 292.594 156.961 127.146 123.399 110.247 111.249 89.1961 89.5498 85.5201 78.5863 76.7355 72.9532 86.7661 69.1416 62.1456 60.9993 59.5226 56.8284 56.3851 48.5218 44.8845 44.6574 44.6223 43.4939 42.605 41.8048 43.2256 40.6832
threshold=53.500000000000007 110.50000000000001 79.500000000000014 228.50000000000003 75.500000000000014 209.50000000000003 109.50000000000001 80.500000000000014 107.50000000000001 82.500000000000014 217.50000000000003 45.500000000000007 83.500000000000014 130.50000000000003 133.50000000000003 153.50000000000003 123.50000000000001 106.50000000000001 140.50000000000003 171.50000000000003 101.50000000000001 145.50000000000003 62.500000000000007 93.500000000000014 68.500000000000014 113.50000000000001 87.500000000000014 107.50000000000001 178.50000000000003 101.50000000000001
decision_type=2 2 2 2 2 2 2 2 2 2 2 2 2 2 2 2 2 2 2 2 2 2 2 2 2 2 2 2 2 2
left_child=1 20 3 6 8 18 -3 11 -2 13 26 -8 15 -10 16 24 -15 -13 -5 -18 -1 -22 -4 -20 -12 29 -6 28 -26 -9
right_child=4 2 22 5 10 -7 7 25 9 -11 12 17 -14 14 -16 -17 19 -19 23 -21 21 -23 -24 -25 27 -27 -28 -29 -30 -31
leaf_value=-2.3001635621973282 -2.3125761181329807 -2.2745209501852548 -2.1862260722483584 -1.8793046980639343 -2.3404758275431772 -2.2778193670163032 -2.2268275240097246 -2.052769069367502 -2.2796984224351782 -2.2898486347467379 -2.2826948356675998 -2.1472353104703523 -2.3057450365300713 -2.2073470057387148 -2.2740248464456685 -2.2862452267971181 -1.9733168228243896 -1.9353872426962921 -1.8890048738285115 -2.2119418258377248 -2.2645981062064759 -2.1388424151716556 -2.2831420668940288 -2.1771169380597324 -2.1729554734824879 -2.2641235589901192 -2.3204769762849113 -2.2066255050620107 -1.9013505520743363 -2.2208857537309852
leaf_count=4772 5694 485 307 210 9089 83 110 151 602 3254 81 108 2057 210 284 340 205 251 45 76 1657 190 1963 89 51 325 16963 88 90 170
internal_value=0 0.453666 0.906705 1.55758 -0.126707 2.82722 1.21875 1.62681 0.0976594 0.340579 -0.207259 2.50059 0.191479 0.844428 1.32258 0.897436 1.92238 3.03466 3.44961 2.64729 0.159557 0.509234 0.325502 2.22222 1.70251 0.992432 -0.248691 2.23435 3.02994 1.60782
internal_count=50000 10916 4297 2027 39084 427 1600 1115 10325 4631 28759 469 2707 1377 775 650 491 359 344 281 6619 1847 2270 134 310 646 26052 229 141 321
shrinkage=1


Tree=8
num_leaves=31
num_cat=0
split_feature=2248 1017 2201 2910 2383 2357 3060 1017 2071 937 2539 203 938 1420 287 2978 2283 2177 3069 1022 2848 2417 1015 2641 1298 653 2055 832 2880 1019
split_gain=1207.68 943.94 688.209 424.538 289.821 205.67 204.441 175.803 217.865 169.423 137.485 129.186 119.699 146.395 105.747 119.061 99.0695 93.4056 90.0481 106.669 87.813 89.0874 86.5557 77.0834 72.6244 68.0968 59.1496 58.8764 64.175 53.8482
threshold=154.50000000000003 111.50000000000001 148.50000000000003 78.500000000000014 113.50000000000001 159.50000000000003 168.50000000000003 69.500000000000014 90.500000000000014 117.50000000000001 80.500000000000014 119.50000000000001 151.50000000000003 156.50000000000003 151.50000000000003 105.50000000000001 85.500000000000014 138.50000000000003 94.500000000000014 74.500000000000014 78.500000000000014 105.50000000000001 176.50000000000003 138.50000000000003 146.50000000000003 150.50000000000003 197.50000000000003 47.500000000000007 46.500000000000007 47.500000000000007
decision_type=2 2 2 2 2 2 2 2 2 2 2 2 2 2 2 2 2 2 2 2 2 2 2 2 2 2 2 2 2 2
left_child=7 2 -2 20 -5 -3 9 8 -1 17 -10 16 13 -7 -15 -16 -12 -6 19 -19 27 -22 26 -9 -20 -18 -17 28 -4 -23
right_child=1 5 3 4 6 12 -8 23 10 -11 11 -13 -14 14 15 22 25 18 24 -21 21 29 -24 -25 -26 -27 -28 -29 -30 -31
leaf_value=-2.3321760418774042 -2.3087853537939949 -2.3317017633121178 -2.2643455591983357 -2.2304663969878842 -2.2443521669523196 -2.284123954975684 -2.2486817526855041 -2.3447911401579518 -2.3132884583134721 -2.1570713895469598 -2.2438338696061959 -2.2860811444379561 -2.2987881328693418 -2.2659747542747644 -2.2458681028437195 -2.17934116912688 -2.1598217732209717 -1.9885860935117963 -2.0506009837247574 -2.1839410346334338 -2.293952957485395 -2.0329998583454847 -2.2244731533804796 -2.3145068090056022 -1.91167602842539 -2.0063603172309099 -1.9610769414257603 -2.3252999267129892 -2.024807334532587 -2.1817246878353718
leaf_count=3830 1801 4917 231 644 83 1291 269 20059 1090 478 452 717 2780 434 287 87 423 454 280 236 251 217 133 6086 825 259 333 609 85 359
internal_value=0 0.508468 1.18799 1.63635 2.1381 0.0567357 2.48571 -0.263904 0.0745828 2.70798 0.557067 0.948136 0.37678 0.74399 1.31083 1.79894 1.44327 3.02686 3.13989 2.47182 0.700152 1.25823 2.43822 -0.351565 3.55706 2.01043 2.96296 0.201201 1.02672 1.7689
internal_count=50000 17084 6822 5021 3269 10262 2625 32916 6771 2356 2941 1851 5345 2565 1274 840 1134 1878 1795 690 1752 827 553 26145 1105 682 420 925 316 576
shrinkage=1


Tree=9
num_leaves=31
num_cat=0
split_feature=2076 1768 2052 2655 1817 1766 1840 1752 1894 2076 2117 2126 852 1022 1751 1603 1670 2524 1669 1875 1944 1908 2074 766 764 2906 2658 2752 1829 1787
split_gain=1163.55 789.942 331.975 325.47 312.415 200.589 127.095 122.676 112.317 107.154 101.99 100.7 85.409 83.2507 81.2547 79.0147 64.131 60.6638 60.5414 55.6368 54.0385 52.3177 51.2293 48.6712 48.0375 47.8611 46.7312 46.1568 44.0737 43.6752
threshold=201.50000000000003 81.500000000000014 187.50000000000003 129.50000000000003 67.500000000000014 90.500000000000014 69.500000000000014 87.500000000000014 66.500000000000014 244.50000000000003 227.50000000000003 167.50000000000003 78.500000000000014 67.500000000000014 103.50000000000001 109.50000000000001 90.500000000000014 207.50000000000003 104.50000000000001 81.500000000000014 24.500000000000004 38.500000000000007 244.50000000000003 187.50000000000003 142.50000000000003 87.500000000000014 111.50000000000001 106.50000000000001 69.500000000000014 125.50000000000001
decision_type=2 2 2 2 2 2 2 2 2 2 2 2 2 2 2 2 2 2 2 2 2 2 2 2 2 2 2 2 2 2
left_child=2 3 6 12 8 10 11 15 22 25 20 -1 13 -2 24 28 -10 29 -7 -9 -4 -8 27 -12 -14 26 -5 -3 -6 -11
right_child=1 4 5 9 7 18 21 19 16 17 23 -13 14 -15 -16 -17 -18 -19 -20 -21 -22 -23 -24 -25 -26 -27 -28 -29 -30 -31
leaf_value=-2.3181997747244125 -2.1549242855181907 -2.0428253514318993 -2.0752188540363727 -2.1373429400810693 -2.0322859665468851 -2.2449443479722184 -2.2932788350661637 -2.2650053136272095 -2.139285441902965 -2.0810322306400795 -2.070020097682856 -2.2432971286040493 -2.1336547150598699 -2.0229133952562388 -2.2358912660070485 -2.286329710252315 -2.2635011500838575 -2.2439274562916092 -2.3231366716184554 -2.3301192064145373 -2.2498122897534563 -2.3441478583829864 -1.9799612864468488 -2.2954166367273654 -1.9782387099729675 -2.3059145112298283 -2.2834810119283131 -2.25456249917523 -2.204044955196427 -2.2099925082199632
leaf_count=7066 380 111 108 234 104 746 1182 853 330 415 376 1161 589 880 409 851 769 394 2095 5016 1118 22591 166 62 136 851 253 118 411 225
internal_value=0 0.591371 -0.218615 1.36313 0.169995 0.380441 -0.302951 -0.0326346 1.15127 0.744332 1.03032 -0.0504437 1.97624 2.39859 1.50696 0.603546 0.763826 1.31421 -0.00019557 -0.180705 0.68153 -0.390335 2.22925 2.0066 1.98084 0.303936 0.893224 1.50655 1.33225 1.76215
internal_count=50000 13495 36505 4766 8729 4505 32000 7235 1494 2372 1664 8227 2394 1260 1134 1366 1099 1034 2841 5869 1226 23773 395 438 725 1338 487 229 515 640
shrinkage=1


Tree=10
num_leaves=31
num_cat=0
split_feature=2257 2923 2750 2245 2786 2383 2864 1815 2328 280 625 834 2591 2327 2350 1703 942 226 2944 2900 2247 1126 1393 132 2976 2712 2880 2838 2089 559
split_gain=1173.76 779.492 412.733 229.11 155.447 136.083 103.546 101.9 88.0291 123.788 82.562 79.0559 71.6488 61.7033 59.3443 56.5231 54.4916 57.1214 54.42 52.3654 54.6127 46.0224 43.7954 41.205 40.8864 40.1676 37.3298 39.7772 38.16 36.9521
threshold=150.50000000000003 169.50000000000003 163.50000000000003 134.50000000000003 162.50000000000003 149.50000000000003 168.50000000000003 70.500000000000014 118.50000000000001 115.50000000000001 141.50000000000003 211.50000000000003 133.50000000000003 143.50000000000003 166.50000000000003 54.500000000000007 92.500000000000014 143.50000000000003 56.500000000000007 111.50000000000001 110.50000000000001 118.50000000000001 166.50000000000003 102.50000000000001 62.500000000000007 190.50000000000003 117.50000000000001 154.50000000000003 169.50000000000003 61.500000000000007
decision_type=2 2 2 2 2 2 2 2 2 2 2 2 2 2 2 2 2 2 2 2 2 2 2 2 2 2 2 2 2 2
left_child=8 3 12 -2 -4 -5 29 24 -1 19 13 -8 -3 -9 -14 -15 18 -18 22 -10 -21 -22 -17 -20 -7 -13 28 -28 -19 -6
right_child=1 2 4 5 6 7 11 10 9 -11 -12 25 14 15 -16 16 17 26 23 20 21 -23 -24 -25 -26 -27 27 -29 -30 -31
leaf_value=-0.035775131105810903 -0.029539363258417078 -0.021073438042962276 0.054752149694693233 0.0038288301844803634 0.24419055523178035 0.081254664592490256 0.26394425803972321 0.017862034593390818 0.014269232208349325 -0.019306356428350741 0.036661042786864405 0.10187722925396435 0.0036828426600489699 0.02763841309192951 0.14215306392056964 0.038163198107489249 0.24090130410892754 -0.016359029005688544 0.18571138578682767 -0.025957690563927119 0.21345212416949266 0.067023922700674504 0.32000873552037912 0.030878196065792049 -0.0091692514978336439 0.21800176760487863 0.054542202774364494 0.1881329447941946 0.22370484657407119 0.092821464645241311
leaf_count=22787 3872 747 415 3885 94 349 1029 395 669 8356 1616 271 288 322 367 45 328 40 104 127 225 206 81 536 1294 297 378 158 268 451
internal_value=0 0.473033 1.32474 0.196479 1.81827 0.382932 2.04127 0.600903 -0.275912 -0.0869154 0.784599 2.30387 0.293771 1.02801 0.834586 1.16966 1.31362 1.61637 0.838131 0.591193 1.0928 1.46032 2.20942 0.568633 0.101008 1.64216 1.30478 0.947613 1.93435 1.19633
internal_count=50000 17630 3959 13671 2557 9799 2142 5914 32370 9583 4271 1597 1402 2655 655 2260 1938 1172 766 1227 558 431 126 640 1643 568 844 536 308 545
shrinkage=0.1


Tree=11
num_leaves=31
num_cat=0
split_feature=1905 1812 1966 2546 1837 1804 2541 1919 1743 2546 2235 498 2573 2674 479 100 1870 1737 1865 302 2513 748 990 2544 337 1967 612 1977 2784 1374
split_gain=824.977 439.21 216.967 167.305 154.123 119.899 106.397 101.506 101.18 95.8004 93.8105 79.452 75.7579 74.4159 74.2615 63.8474 60.8257 57.0825 55.0774 55.0429 56.2109 54.6642 54.0281 52.1834 48.5267 48.4075 47.5407 47.7461 46.8419 52.8358
threshold=40.500000000000007 49.500000000000007 22.500000000000004 139.50000000000003 63.500000000000007 38.500000000000007 120.50000000000001 46.500000000000007 57.500000000000007 140.50000000000003 136.50000000000003 218.50000000000003 191.50000000000003 117.50000000000001 241.50000000000003 242.50000000000003 23.500000000000004 29.500000000000004 43.500000000000007 186.50000000000003 184.50000000000003 115.50000000000001 77.500000000000014 118.50000000000001 127.50000000000001 47.500000000000007 196.50000000000003 252.50000000000003 62.500000000000007 117.50000000000001
decision_type=2 2 2 2 2 2 2 2 2 2 2 2 2 2 2 2 2 2 2 2 2 2 2 2 2 2 2 2 2 2
left_child=3 5 12 11 6 21 -4 -5 17 -7 19 13 -3 18 -12 25 -11 -6 -1 20 -9 28 -8 -17 -24 -10 27 -25 -2 -30
right_child=1 2 4 7 8 9 22 10 15 16 14 -13 -14 -15 -16 23 -18 -19 -20 -21 -22 -23 24 26 -26 -27 -28 -29 29 -31
leaf_value=0.062966622950937842 0.031128687963915741 0.058799736425503402 -0.012509040256617083 0.045362607588416648 0.085067716185274894 0.0052604406738716702 -0.0041592139835495406 0.18433303904890569 0.014005590722244211 0.28636152722395153 0.08285824586266928 0.22061280915613513 0.22869622220238686 0.10642745711250355 0.29563442001505308 -0.026652999114620313 0.070681353962867399 -0.0039349906985450371 0.0012179360657911678 0.078123317799505668 0.32235715945791976 0.24954363952645178 0.13291546997949596 0.061412669603119079 0.044358281150731038 -0.039560497441936217 -0.02641867885735083 0.24154121805511966 0.18643764931062642 0.074426243700255357
leaf_count=1342 455 690 3293 567 452 2883 568 347 966 70 762 133 161 802 91 955 1066 3023 1807 125 260 121 566 378 805 26067 250 98 370 527
internal_value=0 -0.117963 -0.20986 0.777449 -0.237807 0.493959 0.13328 1.28619 -0.300464 0.281488 1.57768 0.499949 0.933445 0.43922 1.06525 -0.347496 0.849508 0.0788817 0.278434 2.16861 2.44435 1.04731 0.563338 0.0991554 0.811864 -0.375828 0.573319 1.00651 0.913895 1.21394
internal_count=50000 43764 38272 6236 37421 5492 5232 2152 32189 4019 1585 4084 851 3951 853 28714 1136 3475 3149 732 607 1473 1939 1681 1371 27033 726 476 1352 897
shrinkage=0.1


Tree=12
num_leaves=31
num_cat=0
split_feature=2512 1595 1670 1315 1801 2105 1529 1307 2447 2506 1476 1118 688 528 1543 1094 960 2087 2071 527 754 1149 1555 363 1025 2575 2582 2419 634 2275
split_gain=194.409 170.676 189.281 158.65 100.453 96.8475 95.2204 79.3603 68.3974 65.6632 56.3411 53.2305 50.1061 49.1659 44.6872 41.4681 39.5523 36.905 34.0042 34.0914 31.7593 29.8606 27.9316 34.4867 27.9857 27.8333 40.8447 27.6638 27.2968 27.2097
threshold=133.50000000000003 110.50000000000001 100.50000000000001 108.50000000000001 89.500000000000014 106.50000000000001 106.50000000000001 98.500000000000014 145.50000000000003 124.50000000000001 109.50000000000001 107.50000000000001 128.50000000000003 141.50000000000003 103.50000000000001 208.50000000000003 145.50000000000003 147.50000000000003 181.50000000000003 134.50000000000003 65.500000000000014 111.50000000000001 104.50000000000001 78.500000000000014 92.500000000000014 170.50000000000003 104.50000000000001 54.500000000000007 141.50000000000003 119.50000000000001
decision_type=2 2 2 2 2 2 2 2 2 2 2 2 2 2 2 2 2 2 2 2 2 2 2 2 2 2 2 2 2 2
left_child=1 5 17 -4 -5 12 -6 -8 10 18 -9 -12 16 14 -13 20 29 21 19 25 -16 -3 23 -22 -25 -2 -27 -10 -17 -1
right_child=9 2 3 4 6 -7 7 8 27 -11 11 13 -14 -15 15 28 -18 -19 -20 -21 22 -23 -24 24 -26 26 -28 -29 -30 -31
leaf_value=0.04413147466403286 0.03597274952626401 -0.013212755549880762 -0.0022093949961917449 0.0050644278724774226 0.015007701674684152 -0.026658357471918661 0.0019542119461390815 0.034627992444872135 0.22265496044383318 -0.031401471848004618 0.048715263370582518 0.068805990075480689 -0.012166311356118223 0.086204143339650138 0.084195322024112867 0.0060812929675398177 -0.010024479582353595 -0.02903378387931221 -0.027070285699277261 -0.0031340112065290915 0.10378597320429786 0.030590368167321594 0.16069918203598701 0.072404688811312887 0.27049201036179454 0.42882481273962458 0.037399803625918653 0.020934666278965307 0.13729355970888182 -0.013452746455553818
leaf_count=3318 1205 1737 2914 1384 1235 7587 535 489 37 11271 502 317 3512 914 150 116 1375 2510 1838 2656 91 1700 584 39 435 25 36 697 271 520
internal_value=0 0.104595 0.269022 0.450274 0.617873 -0.0687968 0.737601 0.870299 0.963926 -0.207138 1.0813 1.18214 0.0992498 1.29672 1.49384 1.63431 0.243227 -0.0708446 -0.00266199 0.120338 1.82446 0.0864819 1.9488 2.3029 2.54341 0.438256 1.9904 0.314648 0.985617 0.363966
internal_count=50000 32969 16657 10710 7796 16312 6412 5177 4642 17031 3908 3419 8725 2917 2003 1686 5213 5947 5760 3922 1299 3437 1149 565 474 1266 61 734 387 3838
shrinkage=0.1


Tree=13
num_leaves=31
num_cat=0
split_feature=2255 2864 1951 2149 2910 1791 207 1984 940 1952 939 1664 2855 754 610 2130 2389 524 782 2928 719 1640 2077 1855 882 1662 671 2803 2535 563
split_gain=236.854 163.648 106.257 79.3211 71.2936 67.4522 57.0948 50.0472 48.5202 47.9037 45.7293 44.639 44.4253 34.4907 34.3929 40.5703 33.5985 32.4653 35.0995 32.1248 29.6058 29.4673 29.278 29.1623 29.0437 28.4662 28.4415 28.904 29.4196 28.8755
threshold=134.50000000000003 137.50000000000003 32.500000000000007 182.50000000000003 166.50000000000003 53.500000000000007 147.50000000000003 89.500000000000014 203.50000000000003 38.500000000000007 81.500000000000014 62.500000000000007 147.50000000000003 71.500000000000014 249.50000000000003 218.50000000000003 40.500000000000007 204.50000000000003 110.50000000000001 125.50000000000001 145.50000000000003 84.500000000000014 174.50000000000003 35.500000000000007 205.50000000000003 185.50000000000003 75.500000000000014 122.50000000000001 182.50000000000003 90.500000000000014
decision_type=2 2 2 2 2 2 2 2 2 2 2 2 2 2 2 2 2 2 2 2 2 2 2 2 2 2 2 2 2 2
left_child=1 2 10 6 9 13 -2 25 -8 19 -1 26 24 -3 22 -16 -14 18 -12 -4 -13 -20 -5 -23 -11 -6 -7 -28 29 -29
right_child=3 5 4 14 7 11 8 -9 -10 12 17 20 16 -15 15 -17 -18 -19 21 -21 -22 23 -24 -25 -26 -27 27 28 -30 -31
